{"type":"LSTM","options":{"inputSize":70,"inputRange":70,"hiddenLayers":[20,20],"outputSize":70,"decayRate":0.999,"smoothEps":1e-8,"regc":0.000001,"clipval":5,"maxPredictionLength":100,"dataFormatter":{"indexTable":{"0":10,"1":16,"2":13,"3":21,"4":20,"5":12,"6":19,"7":9,"8":22,"9":15,"n":0,"o":1,"b":2,"e":3,"l":4,".":5,"i":6,"t":7,"/":8,"f":11,"d":14,"c":17,"a":18,"g":23,"S":24,"k":25,"y":26,"P":27,"m":28,"-":29,"v":30,"r":31,"x":32,"p":33,"h":34,"?":35,"=":36,"_":37,"&":38,"u":39,"s":40,"w":41,"j":42,"z":43,"H":44,"D":45,"J":46,"N":47,";":48,"E":49,"V":50,"B":51,"R":52,"M":53,"Q":54,"L":55,"I":56,"~":57,"Z":58,"O":59,"X":60,"T":61,"F":62,"U":63,"C":64,"A":65,"q":66,"stop-input":67,"start-output":68,"unrecognized":69},"characterTable":{"0":"n","1":"o","2":"b","3":"e","4":"l","5":".","6":"i","7":"t","8":"/","9":"7","10":"0","11":"f","12":"5","13":"2","14":"d","15":"9","16":"1","17":"c","18":"a","19":"6","20":"4","21":"3","22":"8","23":"g","24":"S","25":"k","26":"y","27":"P","28":"m","29":"-","30":"v","31":"r","32":"x","33":"p","34":"h","35":"?","36":"=","37":"_","38":"&","39":"u","40":"s","41":"w","42":"j","43":"z","44":"H","45":"D","46":"J","47":"N","48":";","49":"E","50":"V","51":"B","52":"R","53":"M","54":"Q","55":"L","56":"I","57":"~","58":"Z","59":"O","60":"X","61":"T","62":"F","63":"U","64":"C","65":"A","66":"q","67":null,"68":null,"69":null},"values":[{"input":"nobell.it/70ffb52d079109dca5664cce6f317373782/login.SkyPe.com/en/cgi-bin/verification/login/70ffb52d079109dca5664cce6f317373/index.php?cmd=_profile-ach&outdated_page_tmpl=p/gen/failed-to-load&nav=0.5.1&login_access=1322408526","output":"1.0"},{"input":"www.dghjdgf.com/paypal.co.uk/cycgi-bin/webscrcmd=_home-customer&nav=1/loading.php","output":"1.0"},{"input":"serviciosbys.com/paypal.cgi.bin.get-into.herf.secure.dispatch35463256rzr321654641dsf654321874/href/href/href/secure/center/update/limit/seccure/4d7a1ff5c55825a2e632a679c2fd5353/","output":"1.0"},{"input":"mail.printakid.com/www.online.americanexpress.com/index.html","output":"1.0"},{"input":"thewhiskeydregs.com/wp-content/themes/widescreen/includes/temp/promocoessmiles/?84784787824HDJNDJDSJSHD//2724782784/","output":"1.0"},{"input":"smilesvoegol.servebbs.org/voegol.php","output":"1.0"},{"input":"premierpaymentprocessing.com/includes/boleto-2via-07-2012.php","output":"1.0"},{"input":"myxxxcollection.com/v1/js/jih321/bpd.com.do/do/l.popular.php","output":"1.0"},{"input":"super1000.info/docs","output":"1.0"},{"input":"horizonsgallery.com/js/bin/ssl1/_id/www.paypal.com/fr/cgi-bin/webscr/cmd=_registration-run/login.php?cmd=_login-run&amp;dispatch=1471c4bdb044ae2be9e2fc3ec514b88b1471c4bdb044ae2be9e2fc3ec514b88b","output":"1.0"},{"input":"phlebolog.com.ua/libraries/joomla/results.php","output":"1.0"},{"input":"docs.google.com/spreadsheet/viewform?formkey=dE5rVEdSV2pBdkpSRy11V3o2eDdwbnc6MQ","output":"1.0"},{"input":"www.coincoele.com.br/Scripts/smiles/?pt-br/Paginas/default.aspx","output":"1.0"},{"input":"www.henkdeinumboomkwekerij.nl/language/pdf_fonts/smiles.php","output":"1.0"},{"input":"perfectsolutionofall.net/wp-content/themes/twentyten/wiresource/","output":"1.0"},{"input":"lingshc.com/old_aol.1.3/?Login=&amp;Lis=10&amp;LigertID=1993745&amp;us=1","output":"1.0"},{"input":"anonymeidentity.net/remax./remax.htm","output":"1.0"},{"input":"dutchweb.gtphost.com/zimbra/exch/owa/uleth/index.html","output":"1.0"},{"input":"www.avedeoiro.com/site/plugins/chase/","output":"1.0"},{"input":"asladconcentration.com/paplkuk1/webscrcmd=_home-customer&nav=1/","output":"1.0"},{"input":"www.regaranch.info/grafika/file/2012/atualizacao/www.itau.com.br/","output":"1.0"},{"input":"optimistic-pessimism.com/aoluserupdatealert.info.htm","output":"1.0"},{"input":"mercadolivre.com.br.premiosfidelidade2012.com.br/confirmar/","output":"1.0"},{"input":"www.everythinggoingon.net/~gpeveryt/home/Email/","output":"1.0"},{"input":"mercadolivre.com.br.premiosfidelidade2012.com.br/","output":"1.0"},{"input":"www.revitolcream.org/wp-content/plugins/all-in-one-seo-pack/rex/secure-code17/security/","output":"1.0"},{"input":"jameshowardmusic.com/wp-content/themes/widescreen/includes/cache/bbnew/bb.php","output":"1.0"},{"input":"xini.eu/00Qe","output":"1.0"},{"input":"myxxxcollection.com/v1/js/555klisdr/bpd.com.do/do/l.popular.php","output":"1.0"},{"input":"paypal.com.cgi.bin.webscr.cmd.login.submit.dispatch.5885d80a13c03faee8dcbcd55a50598f04d34b4bf5tt1.mediareso.com/secure-code90/security/","output":"1.0"},{"input":"ebayisapidlld.altervista.org/","output":"1.0"},{"input":"horizonsgallery.com/js/bin/ssl/_id/www.paypal.com/fr/cgi-bin/webscr/cmd=_registration-run/login.php?cmd=_login-run&dispatch=7adb89899b4614aec6715340ae31adce7adb89899b4614aec6715340ae31adce","output":"1.0"},{"input":"www.revitolcream.org/wp-content/plugins/all-in-one-seo-pack/rex/secure-code5/security/login.php","output":"1.0"},{"input":"sontemeda.altervista.org/paypinoko/paypinoko/procesing.php","output":"1.0"},{"input":"promusic.co/components/interbank.com/","output":"1.0"},{"input":"uvb.lg.ua/templates/a216/.PayPaI/e9d83d4fd35ff9d702196ab514573999/","output":"1.0"},{"input":"docs.google.com/a/unmsm.edu.pe/spreadsheet/viewform?formkey=dEZoOXQwTzFkaUJCRTdhVlA3cTAyV1E6MQ","output":"1.0"},{"input":"remax.com.behinehsazerooyesh.com/remax/index.htm","output":"1.0"},{"input":"www.aclaydance.com/ncpf.php","output":"1.0"},{"input":"phamxuanlinh.tk/secure-code8/security/login.php","output":"1.0"},{"input":"stthomasedu.ucoz.ua/microsoft.htm","output":"1.0"},{"input":"www.procedimentotamfidelidade.com/regulamento/new/processo/atualiza/sacfidelidade/id=1714/","output":"1.0"},{"input":"paypal.com.us.cgi.bin.webscr.cmd.login.submit.bx3digitallp.com/Review/3a3e3c4dba5e5cc4407a5694adf1aa8e/","output":"1.0"},{"input":"tinyurl.com/bswqloj","output":"1.0"},{"input":"users11.jabry.com/blopp/Aolupdate.htm","output":"1.0"},{"input":"tad.ly/BUpQLx","output":"1.0"},{"input":"professionalcrapsplayer.com/upgrade/logins/Trulia/index.htm","output":"1.0"},{"input":"westerncentermuseum.org/plugins/tmp/sp.php","output":"1.0"},{"input":"cardpromocion2012.com.br/vaidevisa/asp/conta/participe/autentica/autentica.php","output":"1.0"},{"input":"portalsalinas.com.br/modules/mod_acepolls/spam.php","output":"1.0"},{"input":"www.sil.org/translation/Training.htm","output":"0.0"},{"input":"www.foreignword.com/Translators/transdb.htm","output":"0.0"},{"input":"groups.yahoo.com/group/Spanish_English_Translation_Jobs","output":"0.0"},{"input":"groups.yahoo.com/group/jobs-translators/","output":"0.0"},{"input":"www.freewebs.com/tradu_es/","output":"0.0"},{"input":"groups.yahoo.com/group/translation-jobs/","output":"0.0"},{"input":"www.kokusai.ne.jp/English/","output":"0.0"},{"input":"www.anglo-worldwide.com/interpreting.htm","output":"0.0"},{"input":"home.global.co.za/~jtrocki/trans/","output":"0.0"},{"input":"www.moscowinterpreter.com/eng/index.htm","output":"0.0"},{"input":"www.angelfire.com/co4/cetranslator/","output":"0.0"},{"input":"www.ogoino.com/index.html","output":"0.0"},{"input":"www.interpreters.homestead.com/interpreters.html","output":"0.0"},{"input":"www3.point.ne.jp/~mike/","output":"0.0"},{"input":"www.tagaloginterpreters.com/mainframe.html","output":"0.0"},{"input":"www.freewebs.com/tgevaert/","output":"0.0"},{"input":"www.akzente-sprachen.de/english/","output":"0.0"},{"input":"www.noordaa.info/svetlanaspaic/","output":"0.0"},{"input":"www.certifiedchinesetranslation.com/sujen_huang/","output":"0.0"},{"input":"www.languagealliance.com/legal-translation/","output":"0.0"},{"input":"www.mamut.net/interpretersoncall/","output":"0.0"},{"input":"users.freenet.am/~trialog/","output":"0.0"},{"input":"www.dl-jinshi.com/english.htm","output":"0.0"},{"input":"www.webspawner.com/users/zwzhs/","output":"0.0"},{"input":"www.transexpert.net/english/","output":"0.0"},{"input":"www.pentaservices.com/engindex.htm","output":"0.0"},{"input":"www.uow.edu.au/~rwitton/","output":"0.0"},{"input":"home.catv.ne.jp/ff/k-wedge/","output":"0.0"},{"input":"www.dango.ne.jp/filmex/","output":"0.0"},{"input":"www.angelfire.com/nt/angroup/","output":"0.0"},{"input":"www.angelfire.com/biz/razin/index.html","output":"0.0"},{"input":"www.toptrans.co.kr/english/index.html","output":"0.0"},{"input":"ilbono.net/english.html","output":"0.0"},{"input":"www.angelfire.com/biz/dirmax/prime.html","output":"0.0"},{"input":"www.translatorscafe.com/Cafe/TranslatorProfile.asp?LinguistID=3890","output":"0.0"},{"input":"pages.webbaukasten.de/sweet17.de/olealsbart/","output":"0.0"},{"input":"www.dolmetschen.at/en/index.htm","output":"0.0"},{"input":"www.korrelektor.at/gbindex.htm","output":"0.0"},{"input":"members.chello.at/nada.endres","output":"0.0"},{"input":"www.solard.com/eng/services_for/translation.htm","output":"0.0"},{"input":"www.home.mastersites.com/prevodi/en1.html","output":"0.0"},{"input":"www.translinknet.be/company_profile_en.html","output":"0.0"},{"input":"users.telenet.be/taalbureau/","output":"0.0"},{"input":"users.skynet.be/techtran/","output":"0.0"},{"input":"home.scarlet.be/~tsh36287/","output":"0.0"},{"input":"www.angelfire.com/biz/nucleaire/abveng.html","output":"0.0"},{"input":"www.freewebs.com/kameliaantova/","output":"0.0"},{"input":"www.inet.hr/~ibjelac/","output":"0.0"},{"input":"www.kinesisk.dk/us.html","output":"0.0"},{"input":"www.feanor.com/trad_uk.htm","output":"0.0"}],"characters":["n","o","b","e","l",".","i","t","/","7","0","f","5","2","d","9","1","c","a","6","4","3","8","g","S","k","y","P","m","-","v","r","x","p","h","?","=","_","&","u","s","w","j","z","H","D","J","N",";","E","V","B","R","M","Q","L","I","~","Z","O","X","T","F","U","C","A","q","stop-input","start-output","unrecognized"],"specialIndexes":[67,68,69]}},"trainOpts":{"iterations":100,"errorThresh":0.005,"log":true,"logPeriod":1,"learningRate":0.25,"callbackPeriod":10,"timeout":"Infinity"},"input":{"rows":71,"columns":70,"weights":[7.707953453063965,7.019861221313477,8.281785011291504,-7.787661552429199,-7.927182197570801,-7.9484968185424805,7.9644904136657715,-8.293739318847656,-7.778143882751465,-6.893767356872559,8.063886642456055,-7.051916122436523,-7.933929920196533,8.188547134399414,7.161733150482178,7.406601905822754,-8.066444396972656,-5.809582233428955,8.044519424438477,7.369192600250244,7.4709391593933105,-8.043842315673828,-8.224905967712402,-7.549953460693359,-8.477946281433105,7.852092742919922,8.36098575592041,7.724097728729248,-7.816540718078613,-7.447129249572754,-7.9627861976623535,-8.988311767578125,-6.309408187866211,6.92327356338501,-8.406279563903809,-7.8064351081848145,-7.476248741149902,-7.230175971984863,8.082236289978027,-8.086745262145996,-7.792872905731201,7.785216331481934,-7.720451831817627,8.193252563476562,-8.258598327636719,8.130395889282227,7.864317893981934,7.733920574188232,7.914710998535156,-7.9386091232299805,7.8077006340026855,8.493388175964355,-7.5719122886657715,7.938552379608154,7.4367995262146,-8.130763053894043,7.874197483062744,7.421210765838623,7.991494178771973,-7.979193210601807,7.7535295486450195,7.6692705154418945,7.5583648681640625,6.3060173988342285,-6.053568363189697,-7.686454772949219,-8.306817054748535,-7.768279075622559,7.5463175773620605,7.422542095184326,-18.620059967041016,-8.951285362243652,14.39248275756836,7.35386848449707,8.567465782165527,2.0085577964782715,13.411999702453613,15.073266983032227,13.478325843811035,-4.033093452453613,2.926344871520996,9.699469566345215,22.48187828063965,-5.35988187789917,-7.154748916625977,-1.8854764699935913,14.498286247253418,-8.277145385742188,-3.3724820613861084,-12.848431587219238,-10.388458251953125,19.364397048950195,-1.995111346244812,-5.187025547027588,0.47406378388404846,4.731266021728516,-8.007797241210938,-14.915337562561035,-16.197189331054688,-8.353585243225098,-15.186339378356934,6.223862171173096,-7.499743938446045,-1.3381456136703491,1.4368191957473755,-6.574611663818359,-7.963822841644287,-2.434901714324951,9.00857162475586,7.806180000305176,2.6545753479003906,22.857357025146484,13.82530403137207,-6.614352226257324,-13.072994232177734,-6.8986005783081055,-24.651208877563477,5.318347454071045,-9.238834381103516,16.719099044799805,-4.125413417816162,-7.568912029266357,12.98167610168457,-11.236655235290527,-14.459847450256348,6.376654624938965,3.723479986190796,3.8702661991119385,-9.406356811523438,-0.3925473988056183,-5.672751426696777,4.149431228637695,-16.66771125793457,-15.049103736877441,-15.119913101196289,-12.027981758117676,20.262523651123047,19.1173095703125,13.017170906066895,-5.446082592010498,-6.8211989402771,-6.336588382720947,-7.271414756774902,-7.77587366104126,8.0112886428833,-7.460048198699951,6.928384304046631,-7.604519844055176,-8.446086883544922,8.600048065185547,8.292004585266113,-7.130096912384033,7.511557579040527,-8.08642292022705,6.805454730987549,-8.402467727661133,-8.216680526733398,-8.459595680236816,5.6980390548706055,7.568879127502441,7.408771514892578,-7.635764122009277,7.872627258300781,-4.182432651519775,-8.206271171569824,-7.164918422698975,7.4733781814575195,-6.361764907836914,-8.223895072937012,8.086645126342773,7.9554033279418945,7.343599796295166,8.240220069885254,-8.03720760345459,7.594240188598633,8.213189125061035,-8.766938209533691,7.86768913269043,-3.6893091201782227,-7.6617608070373535,-7.2879414558410645,-7.634829044342041,-7.5251569747924805,8.20116901397705,7.818424224853516,8.256584167480469,-7.794379711151123,3.3550896644592285,-8.195111274719238,-8.549779891967773,6.856173038482666,-8.059762001037598,5.0684428215026855,7.564535140991211,3.899700880050659,-7.826057434082031,-7.906280517578125,7.585043430328369,-7.43430757522583,-8.091143608093262,-8.521148681640625,8.190523147583008,-7.964494228363037,-8.140975952148438,-7.047411918640137,-8.404428482055664,-7.60097074508667,1.011567234992981,7.6951398849487305,-8.231644630432129,15.758522987365723,-0.06119105592370033,0.015968333929777145,-15.518794059753418,-15.259145736694336,-15.457229614257812,0.48717308044433594,16.109458923339844,0.014434698037803173,16.118980407714844,15.935575485229492,0.25009509921073914,0.5434702634811401,0.029288223013281822,0.25338107347488403,0.03026299737393856,-0.08472297340631485,0.03343866765499115,0.16892576217651367,0.06207842007279396,0.06532729417085648,-0.2163764089345932,15.655155181884766,-0.2270989567041397,-15.688472747802734,0.5515046715736389,3.006201982498169,-15.621872901916504,-14.132977485656738,-0.9388872385025024,15.241406440734863,0.31782087683677673,15.744383811950684,-15.085379600524902,0.29932117462158203,15.93227767944336,-16.219877243041992,15.122062683105469,14.81535816192627,-0.12845802307128906,-15.740161895751953,0.0382930189371109,-0.22403480112552643,15.385769844055176,-0.4159448444843292,15.355775833129883,-15.868546485900879,-0.2795262038707733,-15.492903709411621,-0.11532718688249588,-14.430224418640137,12.93459701538086,0.7393628358840942,-0.20630986988544464,0.3567253351211548,-1.5200626850128174,-15.774616241455078,-0.31443512439727783,0.23219622671604156,-3.4110910892486572,-15.334413528442383,14.622089385986328,0.026105372235178947,-15.346062660217285,13.06407356262207,-0.4013672471046448,0.25064682960510254,-0.47445550560951233,15.275492668151855,-15.197993278503418,8.507184028625488,7.98868465423584,-7.81963586807251,-8.119499206542969,-7.462622165679932,-7.857708930969238,-7.815094947814941,-7.5553789138793945,-7.586757659912109,7.327311038970947,8.265419006347656,-7.939272880554199,-7.004565715789795,-8.713028907775879,7.671546459197998,-7.070099830627441,-7.708014965057373,-8.181920051574707,-7.9823503494262695,8.09545612335205,8.014994621276855,-7.037328243255615,9.02458381652832,7.368199348449707,-7.874960422515869,7.599854469299316,-8.389976501464844,-7.534985542297363,-8.434039115905762,7.589056491851807,8.312773704528809,8.720331192016602,7.033502101898193,-7.4600701332092285,8.540026664733887,8.951045036315918,-8.24866771697998,7.195975303649902,7.56244421005249,-6.720432758331299,-7.927700042724609,-8.02628231048584,7.025941371917725,7.994531154632568,7.336604118347168,7.887462139129639,7.790014266967773,-8.77090835571289,-8.717832565307617,-7.337681770324707,-7.602697372436523,-8.412672996520996,-8.042451858520508,7.154696464538574,-7.5606303215026855,-7.813147068023682,-8.77295207977295,8.052337646484375,-7.666058540344238,-7.745380878448486,-8.300947189331055,8.554340362548828,7.424769878387451,-6.939477443695068,8.927858352661133,-8.350409507751465,-7.155655860900879,8.356778144836426,8.180628776550293,-7.44102668762207,0.40067607164382935,-1.3125449419021606,0.25937938690185547,9.617255210876465,-1.34765625,14.155908584594727,0.06253061443567276,-14.933512687683105,1.1181668043136597,-6.702853202819824,6.788271427154541,0.006979057565331459,0.9834030270576477,-1.9365730285644531,-0.5755146145820618,1.3376266956329346,0.23534291982650757,-0.556640088558197,13.358839988708496,-7.511203765869141,0.11494580656290054,15.797224998474121,-13.501986503601074,-12.867013931274414,14.5664701461792,1.1377344131469727,-1.0685040950775146,2.2473134994506836,13.521612167358398,0.20562757551670074,5.1932878494262695,-0.4774858057498932,-15.343950271606445,15.097208023071289,-2.530524492263794,-8.21360969543457,14.354009628295898,-15.789590835571289,-15.45052433013916,16.274433135986328,20.038631439208984,3.580258846282959,-13.947495460510254,-8.822855949401855,-6.666003227233887,-15.312379837036133,4.549152374267578,14.844890594482422,-9.337005615234375,-15.296399116516113,0.05783258378505707,-13.744085311889648,3.606715440750122,-15.876290321350098,-0.3478067219257355,-0.7812569737434387,14.624032974243164,-7.620537757873535,12.648837089538574,-0.35448765754699707,15.127161979675293,5.3766069412231445,15.275646209716797,0.6524783968925476,15.496713638305664,-10.344008445739746,-0.08760202676057816,8.029293060302734,-15.115595817565918,7.834081172943115,-0.02494684047996998,17.550952911376953,15.046379089355469,-0.4715144634246826,7.803688049316406,-0.16738207638263702,-0.3257489800453186,7.939478397369385,12.76851749420166,-15.497819900512695,-7.637109279632568,9.278059959411621,15.56662654876709,0.15963205695152283,1.5855138301849365,17.51445960998535,16.122648239135742,-0.3976376950740814,6.423650741577148,-12.694708824157715,-0.1898283064365387,15.711079597473145,0.12578319013118744,-15.671104431152344,8.787518501281738,-10.87265396118164,14.598790168762207,-15.610344886779785,-0.2674039900302887,-12.6328125,-5.926761627197266,-0.4452923536300659,-7.790633678436279,6.99148416519165,-16.412355422973633,3.0621323585510254,5.809551239013672,-8.07429027557373,15.946293830871582,15.769196510314941,8.213427543640137,7.033524990081787,-0.3409408628940582,16.159748077392578,-7.794304847717285,0.316224068403244,-15.810755729675293,8.171427726745605,-15.503442764282227,0.36601319909095764,-1.3577739000320435,0.24304360151290894,0.092648945748806,-11.22387981414795,0.3622465431690216,8.649751663208008,-15.955814361572266,-15.564491271972656,-8.403839111328125,-0.13505718111991882,-0.357159823179245,0.3611109256744385,-10.349793434143066,-0.21637053787708282,-15.45339584350586,15.435649871826172,10.39112663269043,0.20730474591255188,-8.046943664550781,15.863073348999023,-7.9628071784973145,-8.642999649047852,8.227954864501953,7.882476329803467,4.101758003234863,7.660004138946533,-7.614583969116211,7.605794429779053,8.165122032165527,-7.634300708770752,8.338501930236816,8.407017707824707,-7.701929092407227,-7.477446556091309,8.03753662109375,7.84979248046875,7.767540454864502,7.5137739181518555,7.9946112632751465,-7.956438064575195,-8.18822956085205,7.841953277587891,-8.004209518432617,3.385617733001709,7.435481071472168,-9.942855834960938,-7.726012229919434,-7.816896438598633,-7.179440975189209,7.522314071655273,7.616392135620117,-5.925702095031738,-6.9898247718811035,7.36952018737793,-7.913562297821045,-7.808720111846924,7.917209625244141,-6.924145698547363,8.119423866271973,7.706840515136719,7.492908477783203,-6.715106010437012,7.873697280883789,-7.733687400817871,-7.982837677001953,-7.313158988952637,7.443387985229492,-7.853255748748779,-8.285208702087402,-7.797420978546143,7.741193771362305,-7.104175090789795,-8.579139709472656,-7.663015842437744,-5.363981246948242,7.702353000640869,7.7459397315979,-7.875974655151367,-7.465396881103516,7.403404235839844,7.7112908363342285,7.527320384979248,-7.771966934204102,-7.963667392730713,-7.712351322174072,7.3005523681640625,8.051901817321777,8.078651428222656,-7.8353424072265625,-6.967957973480225,19.088356018066406,21.365541458129883,-2.9028656482696533,-0.26820850372314453,5.495396137237549,7.426401615142822,0.9307735562324524,-14.952159881591797,-21.096439361572266,-14.718550682067871,0.6577333807945251,-19.999616622924805,-20.01565933227539,0.47131893038749695,-6.357065677642822,16.23577880859375,5.361863613128662,21.647647857666016,-5.141540050506592,20.063257217407227,5.261275768280029,-0.5993514657020569,-4.205638885498047,-5.706137657165527,17.391870498657227,-5.105049133300781,-14.43647575378418,3.6635944843292236,3.2361233234405518,14.045771598815918,14.47099494934082,5.472585678100586,-15.573095321655273,21.800628662109375,-0.1599283665418625,4.907212257385254,-5.822403907775879,-21.711698532104492,1.1404812335968018,5.070150375366211,14.776845932006836,-0.0024428723845630884,-20.770851135253906,-14.766812324523926,2.4349827766418457,1.3452985286712646,14.950704574584961,1.0313220024108887,1.0221940279006958,-9.80882453918457,-0.9169976115226746,-5.463138580322266,-14.522544860839844,-7.170585632324219,14.028388023376465,5.346266746520996,-2.6480088233947754,-0.9500532746315002,-9.096284866333008,-1.1944704055786133,13.592400550842285,0.3514113426208496,12.803873062133789,19.205364227294922,14.930421829223633,-14.667678833007812,-3.7239904403686523,-0.9097737669944763,14.107579231262207,14.969705581665039,-2.735469341278076,10.836645126342773,-10.27783489227295,-21.286407470703125,-5.988106727600098,-5.85791015625,-6.039417743682861,8.888274192810059,5.88156270980835,3.0687830448150635,2.7681195735931396,6.653492450714111,8.169001579284668,8.379794120788574,12.603426933288574,-9.37490463256836,-4.960755348205566,-5.29517936706543,-12.827414512634277,2.70796799659729,6.283840656280518,6.492966175079346,5.896036624908447,-3.5074753761291504,-3.824215888977051,8.49112606048584,8.943554878234863,-6.724694728851318,4.810338973999023,-2.1985249519348145,-15.357364654541016,7.744075298309326,8.646329879760742,-8.068594932556152,-9.86278247833252,4.107268333435059,-14.119081497192383,-4.831296920776367,-19.328611373901367,-13.18221378326416,6.626642227172852,-16.649560928344727,8.715307235717773,20.318992614746094,-4.096926689147949,14.023698806762695,-6.994848251342773,-5.548428058624268,3.4967637062072754,-8.66626262664795,11.9016752243042,-1.9149647951126099,-5.589874744415283,8.142059326171875,6.00519323348999,4.444672107696533,-12.521206855773926,6.716589450836182,10.465917587280273,-4.588005065917969,-18.294782638549805,-5.515068054199219,-1.6916718482971191,2.305626392364502,2.1668834686279297,-8.158284187316895,-8.162686347961426,-11.228225708007812,2.218681573867798,-11.939783096313477,7.476437568664551,17.417396545410156,-17.58689308166504,17.813501358032227,10.181652069091797,9.652444839477539,-18.1517391204834,8.714921951293945,-18.941272735595703,-18.076217651367188,9.46554183959961,-18.016357421875,8.650562286376953,-17.724363327026367,9.512982368469238,17.556543350219727,17.0716552734375,-8.293281555175781,-10.976811408996582,9.910699844360352,-9.208542823791504,8.403092384338379,7.73880672454834,17.751840591430664,18.88876724243164,7.858517169952393,-17.56744384765625,9.533907890319824,10.199714660644531,-7.79583740234375,17.216217041015625,18.15423011779785,-17.556249618530273,17.429121017456055,18.253883361816406,-0.47780272364616394,-7.957611083984375,-9.028818130493164,-9.72057819366455,-2.0077147483825684,19.5090389251709,8.405543327331543,-17.728029251098633,-19.14341926574707,-5.8354620933532715,-18.1704044342041,-8.340527534484863,-16.895732879638672,18.811702728271484,-18.003082275390625,18.560789108276367,-17.87955093383789,-6.235130786895752,-8.333504676818848,18.515995025634766,8.77738094329834,-16.907377243041992,-8.173266410827637,-17.96583366394043,18.361793518066406,18.760286331176758,8.418848991394043,19.134763717651367,9.364290237426758,8.662968635559082,-8.466194152832031,8.032878875732422,17.008970260620117,29.15279769897461,9.503060340881348,-5.4024763107299805,9.77054500579834,-26.722042083740234,6.737151622772217,-8.509867668151855,-8.803732872009277,-26.47565460205078,-16.298704147338867,-10.720500946044922,9.791287422180176,-8.701253890991211,-17.052560806274414,-7.223896503448486,-0.9808047413825989,21.42442512512207,-25.704721450805664,2.614710569381714,-1.1736798286437988,-1.0516157150268555,8.397210121154785,17.62572479248047,-8.894762992858887,-0.44712722301483154,12.761351585388184,13.114992141723633,17.51520347595215,-7.2530717849731445,-21.7384033203125,9.039777755737305,2.7240090370178223,0.15778778493404388,-4.808382034301758,8.172348022460938,-14.3671293258667,3.688769817352295,-14.578239440917969,-6.343983173370361,8.46832275390625,-9.464082717895508,-22.1107234954834,-9.517585754394531,22.535343170166016,7.897750377655029,-23.955169677734375,20.29169273376465,-12.657299041748047,10.190295219421387,1.2025431394577026,21.8544864654541,6.4095892906188965,3.771494150161743,-7.197205066680908,-9.311593055725098,13.052370071411133,-9.90416145324707,6.5160603523254395,10.475520133972168,5.7814531326293945,-7.156658172607422,-1.9194661378860474,6.936593055725098,-7.891931533813477,22.252395629882812,-5.283883571624756,-5.1358113288879395,3.0561704635620117,-12.618156433105469,0.13987500965595245,3.2046871185302734,-9.275201797485352,17.823734283447266,-5.896639823913574,5.2009735107421875,-19.83307456970215,2.886470079421997,4.607554912567139,-20.450180053710938,-14.304168701171875,-16.232559204101562,14.664838790893555,20.311342239379883,0.7614237070083618,-20.480276107788086,-16.822349548339844,-20.996824264526367,-4.851412773132324,10.170554161071777,5.178005218505859,5.004288673400879,-4.952789306640625,-5.67989444732666,-1.059437870979309,10.4807710647583,20.03976821899414,20.946062088012695,-4.476517200469971,-18.98619842529297,-3.688181161880493,-20.84768295288086,20.87287139892578,16.02120018005371,5.447021007537842,-3.0921218395233154,-17.906518936157227,15.147073745727539,17.73847007751465,-3.065396308898926,-3.9195165634155273,5.707353591918945,-0.39577576518058777,2.4111509323120117,-5.500217914581299,-7.482855796813965,-18.58624839782715,-1.3030344247817993,5.993649482727051,18.482542037963867,-18.38153076171875,-17.394195556640625,18.183557510375977,4.327683448791504,-4.952149868011475,5.8302903175354,-7.050143241882324,-17.655441284179688,-18.76136589050293,-19.880565643310547,2.699746608734131,17.184005737304688,5.117095947265625,-5.177534580230713,18.450593948364258,-0.4414341449737549,5.470585346221924,-2.281531572341919,-18.23940086364746,-21.356246948242188,19.678287506103516,14.968378067016602,-18.825580596923828,-5.929561138153076,-21.194561004638672,2.777331829071045,6.389331817626953,-2.9146859645843506,4.724771022796631,-3.2597415447235107,-18.48749542236328,29.00162124633789,-28.339662551879883,-19.586811065673828,-19.585968017578125,-8.8204345703125,-1.4191337823867798,-27.470544815063477,-22.28520393371582,8.282280921936035,16.58733558654785,19.55474281311035,-33.62725067138672,-76.19229888916016,3.354827404022217,-21.328304290771484,-24.327993392944336,24.473182678222656,21.799381256103516,4.7107930183410645,-24.802223205566406,7.14150333404541,9.587546348571777,10.674381256103516,-20.320432662963867,-12.013068199157715,-18.601821899414062,-27.57659149169922,-9.861639976501465,21.29173469543457,-25.87776756286621,36.65883255004883,-12.685712814331055,-29.725622177124023,-6.695319175720215,-5.2326579093933105,39.149349212646484,19.845151901245117,-33.57360076904297,22.348737716674805,12.168182373046875,-7.875128269195557,16.507719039916992,-2.4916019439697266,-12.411298751831055,-26.37464714050293,-6.687811851501465,-19.615760803222656,-4.850760459899902,23.563398361206055,3.124277353286743,30.184131622314453,12.690011024475098,0.7018090486526489,38.58637237548828,16.878305435180664,-63.40605545043945,-28.541034698486328,16.580509185791016,-28.684642791748047,35.00423812866211,32.1475830078125,29.762598037719727,-0.660530149936676,-1.6566656827926636,-0.31053638458251953,-2.717148542404175,-2.381049633026123,-0.40497368574142456,1.4023326635360718,0.42343461513519287,1.869925856590271,-0.5598866939544678,0.08687885105609894,0.40058866143226624,0.8791887164115906,-7.526910305023193,-11.996066093444824,-1.4950554370880127,2.8115739822387695,0.10025294870138168,-0.2499978393316269,-1.3647936582565308,-1.0240755081176758,0.23280665278434753,1.195436954498291,-0.2538505792617798,0.6373188495635986,-5.94387149810791,0.8727861642837524,-1.156262993812561,-0.8012123703956604,3.421816349029541,-1.102972149848938,-1.329124093055725,1.4774320125579834,-1.5893170833587646,-1.7105427980422974,0.37069886922836304,0.7706719636917114,-0.35765206813812256,1.66798734664917,0.2121005654335022,-2.414614200592041,0.7772356271743774,0.0323939211666584,-0.039956022053956985,-1.3919320106506348,2.009350061416626,0.0074787144549191,0.37013083696365356,-2.5178236961364746,3.023937702178955,-1.1484252214431763,1.2793482542037964,-1.1060799360275269,0.7131991386413574,-1.2164863348007202,-5.349240779876709,0.8890866041183472,-1.3744312524795532,1.4998022317886353,-0.9329755306243896,-1.3142942190170288,0.5017433166503906,-0.45536279678344727,-2.6914267539978027,-1.511956810951233,0.7028677463531494,0.2697557210922241,0.08958031982183456,2.0732786655426025,0.33686989545822144,-7.173015594482422,-6.63331413269043,0.2924307584762573,0.3759589195251465,9.228063583374023,-6.478796482086182,-7.876857280731201,-0.12624238431453705,5.889328479766846,-8.249524116516113,-8.686393737792969,7.586451053619385,0.03882749006152153,-9.357891082763672,1.640374779701233,-8.87984561920166,6.531399250030518,8.717318534851074,-0.12949293851852417,15.30970287322998,14.8934907913208,-6.1877546310424805,6.570553779602051,-0.13491852581501007,-6.635374069213867,-15.975342750549316,8.808823585510254,-1.2475318908691406,0.5500527620315552,-15.364899635314941,-9.242547988891602,-2.743687391281128,-9.291356086730957,9.53662395477295,9.233342170715332,7.1964569091796875,-9.394030570983887,-7.890773773193359,-0.5205349326133728,9.856207847595215,-6.70637845993042,6.3750104904174805,6.457639217376709,0.8358991146087646,16.130809783935547,-8.456504821777344,-0.38822290301322937,-8.245960235595703,-8.54993724822998,15.4433012008667,8.886259078979492,6.824910640716553,-11.013757705688477,-4.720529079437256,6.2015700340271,-0.010214489884674549,-15.032763481140137,12.821908950805664,-6.729427814483643,9.130517959594727,0.06961312144994736,-16.42923355102539,-8.768622398376465,-4.11872673034668,0.10716069489717484,3.127044916152954,15.834178924560547,4.889981746673584,-0.6896083950996399,-6.5905938148498535,-30.820707321166992,-15.790667533874512,-30.40705680847168,30.787424087524414,-29.980480194091797,11.293903350830078,-31.39990997314453,31.059179306030273,30.777103424072266,30.999406814575195,-30.392486572265625,17.82505989074707,-31.47170639038086,32.20585632324219,32.431182861328125,-30.475126266479492,29.592531204223633,30.364665985107422,-31.94451904296875,-31.385581970214844,-31.408864974975586,-30.491416931152344,-30.35553741455078,30.80759620666504,31.108478546142578,31.588863372802734,44.58929443359375,-30.695737838745117,32.178794860839844,-30.19074058532715,-32.239131927490234,-12.706494331359863,31.588586807250977,13.604693412780762,-31.36499786376953,-31.28569221496582,29.972259521484375,31.217741012573242,29.939714431762695,-29.51982879638672,-30.57038688659668,31.817811965942383,31.048627853393555,-31.701759338378906,30.874141693115234,13.264768600463867,30.647510528564453,31.759397506713867,31.09175682067871,-31.187795639038086,-31.3723201751709,16.23504066467285,30.428787231445312,32.79140090942383,-29.24008560180664,30.972570419311523,29.462474822998047,-31.314056396484375,-30.746768951416016,-19.06443214416504,31.167688369750977,-30.59674072265625,31.38774299621582,-31.147554397583008,-30.884410858154297,-29.856660842895508,-31.458093643188477,-32.56088638305664,-31.840009689331055,-30.505949020385742,-3.9779016971588135,7.367187023162842,5.562851905822754,17.644010543823242,4.311816692352295,15.592891693115234,-13.430817604064941,-12.820210456848145,1.0897935628890991,-14.483431816101074,-12.247161865234375,-3.0174524784088135,4.77846622467041,-15.420702934265137,1.6383711099624634,0.08333632349967957,1.7187988758087158,-4.911611557006836,-0.11338956654071808,-0.5520984530448914,5.188853740692139,17.05354118347168,0.06106886267662048,-5.320578575134277,13.964296340942383,3.53427791595459,-21.33453941345215,-0.0335116982460022,-1.052634835243225,13.380860328674316,0.08232761919498444,-0.00043434047256596386,-20.12258529663086,-1.2274651527404785,14.746627807617188,2.8814783096313477,-5.78651237487793,0.7560473680496216,-16.993125915527344,-3.6332712173461914,13.922019004821777,-6.509235858917236,-1.0656949281692505,-16.567886352539062,0.3181876838207245,-18.454368591308594,7.705341815948486,-12.387612342834473,-12.741025924682617,1.9599682092666626,10.485636711120605,-1.9788997173309326,-13.838071823120117,-16.05612564086914,17.250478744506836,2.944533586502075,0.7757882475852966,18.342544555664062,-2.330402374267578,17.330839157104492,10.793449401855469,-13.646673202514648,-6.963376045227051,6.993831157684326,17.69921875,-16.848526000976562,4.00990629196167,20.787179946899414,17.626272201538086,18.69574737548828,6.912168025970459,-7.034029483795166,-7.984333515167236,-7.090123653411865,7.6398515701293945,-7.734065532684326,7.733459949493408,-7.4700703620910645,-7.8701701164245605,-7.067590713500977,7.447458267211914,-7.9068732261657715,7.05368709564209,8.507893562316895,7.643571853637695,7.327298164367676,-7.527126789093018,7.725746154785156,7.715433120727539,7.317802429199219,7.771480560302734,-8.363397598266602,-8.746861457824707,-3.4517180919647217,-7.940270900726318,-6.162127494812012,8.143525123596191,7.671618461608887,-7.056921005249023,-8.007161140441895,-7.779370307922363,-7.074029922485352,7.854156494140625,8.085693359375,-8.326184272766113,-8.730424880981445,-6.358554363250732,-7.1838483810424805,7.670948028564453,-8.367944717407227,-7.7169694900512695,8.213781356811523,-7.43696403503418,7.716456413269043,-7.62956428527832,7.697062015533447,7.351474285125732,8.641794204711914,8.773143768310547,-8.532922744750977,6.265986442565918,7.14821720123291,8.203022003173828,7.914102554321289,7.729428768157959,-7.618993282318115,8.272225379943848,0.21826323866844177,-7.7213640213012695,-7.4529032707214355,7.6132354736328125,7.452138423919678,7.799210071563721,-8.110013008117676,-7.565037727355957,-7.922404766082764,-7.596029758453369,-8.270637512207031,7.433383941650391,7.650388717651367,-5.261549949645996,-10.856544494628906,18.61554527282715,8.427116394042969,-19.70073890686035,-0.22414177656173706,1.0111371278762817,17.28466796875,1.7208302021026611,18.947763442993164,-14.423705101013184,16.34296417236328,-21.83359718322754,7.918788909912109,11.818082809448242,-24.953821182250977,-21.229524612426758,-20.628154754638672,6.3781328201293945,-20.52046775817871,-14.69095230102539,-24.65730857849121,-3.894970417022705,-0.9036908745765686,-2.3883605003356934,28.45490264892578,16.230131149291992,-20.145076751708984,20.502864837646484,10.488510131835938,-15.393065452575684,-9.464109420776367,16.242630004882812,-24.755630493164062,-4.136516571044922,-4.073182106018066,9.494579315185547,18.307575225830078,14.876465797424316,-24.32552719116211,5.016026020050049,11.440741539001465,27.99173355102539,1.948600172996521,12.93459415435791,0.49066418409347534,-4.7432169914245605,30.855714797973633,4.102077484130859,-24.571842193603516,-31.20270538330078,15.034011840820312,2.4985456466674805,29.5118350982666,10.84692668914795,8.431015014648438,21.018524169921875,-29.26328468322754,15.979241371154785,-8.550148963928223,23.499900817871094,-15.620599746704102,21.33043098449707,-17.556989669799805,-16.212265014648438,11.009309768676758,-18.721534729003906,-8.710599899291992,-3.6074471473693848,-18.80643081665039,-49.886592864990234,45.143245697021484,-73.14368438720703,49.75263977050781,74.30644226074219,47.0567626953125,-72.64173126220703,-73.12686920166016,-44.55830383300781,-74.9049301147461,-72.8010025024414,-74.20263671875,-44.73918533325195,-72.97207641601562,45.02845001220703,-45.50555419921875,74.63530731201172,36.41722106933594,41.68878173828125,72.53903198242188,71.80010223388672,73.17913818359375,-46.510311126708984,-45.142799377441406,73.62433624267578,46.3708381652832,-75.02709197998047,46.395286560058594,31.383548736572266,-46.30321502685547,-46.556915283203125,73.51722717285156,-75.91095733642578,46.933860778808594,73.12291717529297,-47.64529800415039,-71.03504180908203,-72.50910186767578,-46.78542709350586,-46.4376335144043,46.823577880859375,48.134490966796875,-73.74433135986328,-77.5438461303711,72.4990234375,-74.44129180908203,-46.09755325317383,46.89259338378906,47.88702392578125,72.7144775390625,73.52587890625,-75.35407257080078,-72.09756469726562,-72.9372329711914,58.40917205810547,45.67604064941406,47.371761322021484,72.82706451416016,-73.14181518554688,46.731170654296875,-46.48453903198242,-46.40619659423828,-48.26644515991211,46.57145309448242,33.799583435058594,-47.46257400512695,46.26848602294922,74.60877227783203,73.40557861328125,47.542327880859375,22.90851593017578,16.990564346313477,-19.770910263061523,-10.582032203674316,4.305744171142578,26.802310943603516,-11.324036598205566,-11.166158676147461,-8.53209400177002,-22.609516143798828,13.79638671875,-22.430307388305664,19.583967208862305,-18.2269229888916,-15.838654518127441,3.0851404666900635,33.106807708740234,4.111335277557373,7.523350715637207,-0.1920282542705536,14.545801162719727,25.01578140258789,7.941445350646973,-21.761634826660156,24.224088668823242,3.982743740081787,-33.678653717041016,-5.961550235748291,-28.74987030029297,-14.509285926818848,17.743366241455078,-2.9948298931121826,-22.23041534423828,-10.845666885375977,-1.236843228340149,21.499242782592773,-22.379819869995117,-19.299551010131836,-10.146598815917969,12.608719825744629,-11.295872688293457,-1.8349609375,-20.782073974609375,-16.03072166442871,1.0764315128326416,-10.83938980102539,-6.386120319366455,-22.639719009399414,-8.923235893249512,31.190967559814453,-17.347850799560547,-8.225539207458496,-24.929107666015625,-8.099983215332031,-23.620540618896484,-18.563249588012695,-10.042356491088867,9.429255485534668,-16.92229652404785,12.524044036865234,-23.961055755615234,12.822397232055664,-38.12697982788086,-7.81284236907959,12.898188591003418,4.280115604400635,17.07535743713379,27.189903259277344,38.45568084716797,32.339027404785156,-19.87810707092285,-20.51990509033203,2.970278024673462,-27.61429214477539,-15.235349655151367,-17.989933013916016,-26.109027862548828,19.48352813720703,47.33353805541992,-27.84095001220703,23.000699996948242,-20.976633071899414,22.087078094482422,-5.401866436004639,12.80172061920166,29.68345832824707,-2.7794294357299805,-20.494457244873047,20.009445190429688,-22.561010360717773,-11.031266212463379,-54.6441535949707,28.254871368408203,29.04732894897461,-29.270938873291016,6.270989418029785,-29.87581443786621,11.008573532104492,-8.190694808959961,28.419458389282227,27.546464920043945,-20.401641845703125,19.636451721191406,-26.283475875854492,-19.368391036987305,-14.536343574523926,-26.059858322143555,28.742876052856445,29.438926696777344,-17.865083694458008,-28.453983306884766,22.197912216186523,2.2152843475341797,19.6573486328125,28.397300720214844,-23.4334716796875,-22.030780792236328,4.301616191864014,10.821029663085938,-49.78944396972656,-16.248355865478516,18.918682098388672,-11.758959770202637,17.71870994567871,29.000499725341797,5.719893932342529,-30.415861129760742,-18.497737884521484,-7.363018035888672,-20.186208724975586,28.07520294189453,27.7363338470459,24.038652420043945,-20.761322021484375,-17.50691032409668,-30.66257667541504,-18.689542770385742,30.67493438720703,29.079334259033203,-28.492277145385742,-10.657683372497559,-12.682374000549316,13.094221115112305,-13.59933853149414,-13.672653198242188,-13.630293846130371,13.432374954223633,12.615498542785645,12.763847351074219,13.084872245788574,-14.206844329833984,13.806781768798828,13.029404640197754,12.01166820526123,-13.985854148864746,-8.732982635498047,13.459272384643555,-13.820032119750977,-13.564295768737793,-13.110904693603516,9.314406394958496,-8.019566535949707,13.371662139892578,12.882338523864746,-12.768881797790527,12.461258888244629,13.193780899047852,-13.229532241821289,-14.182900428771973,-13.616354942321777,-13.038926124572754,-12.390660285949707,12.993813514709473,-13.198957443237305,-13.110732078552246,14.364291191101074,8.010461807250977,13.272015571594238,14.078563690185547,14.910149574279785,-13.212867736816406,12.080384254455566,12.79991626739502,13.951738357543945,-13.055697441101074,13.759403228759766,-13.147637367248535,12.744884490966797,-13.101983070373535,14.127305030822754,-12.569524765014648,13.072821617126465,13.929337501525879,12.502043724060059,-13.90203857421875,-13.674762725830078,-13.975826263427734,-12.230643272399902,13.700927734375,-13.874738693237305,-14.617264747619629,12.991719245910645,-14.533204078674316,-12.2820463180542,-12.84929370880127,13.012710571289062,14.601170539855957,13.903667449951172,13.38015079498291,-12.478432655334473,-8.355714797973633,12.843539237976074,-14.459815979003906,7.991829872131348,-8.066317558288574,7.397851943969727,-7.5126776695251465,2.9832725524902344,4.658449172973633,13.71358585357666,-9.61230182647705,7.702031135559082,-8.231350898742676,-4.336467266082764,7.225724697113037,-11.610346794128418,-0.0939069464802742,7.780466556549072,-7.866400241851807,-5.73912239074707,9.886961936950684,-9.455672264099121,6.938261985778809,-14.463939666748047,7.551391124725342,-4.193914890289307,-0.7566530704498291,-7.431701183319092,12.249612808227539,-10.611356735229492,-10.398903846740723,13.260010719299316,8.034913063049316,-8.46379566192627,7.865234851837158,7.845261096954346,9.021063804626465,8.389918327331543,1.6105231046676636,-14.240453720092773,-11.553532600402832,-7.589467525482178,8.01742935180664,-11.101290702819824,7.64048957824707,-7.385470867156982,8.43026065826416,-7.005722522735596,-5.915762901306152,7.108556747436523,-13.377130508422852,0.24027033150196075,-7.702685832977295,-3.975471019744873,-8.43852424621582,7.671345233917236,-7.5559258460998535,7.48390007019043,7.279529094696045,7.422150135040283,9.222223281860352,-8.416582107543945,-6.755031585693359,14.093644142150879,7.2235026359558105,7.771659851074219,5.958308696746826,2.5092883110046387,6.997997760772705,-6.317086696624756,-32.684696197509766,30.923917770385742,-31.22994613647461,33.78315734863281,-32.266815185546875,-30.837678909301758,33.339664459228516,-29.71183967590332,-31.161930084228516,33.328495025634766,-32.21611785888672,-30.85599136352539,30.557132720947266,31.55324363708496,31.153669357299805,-31.206684112548828,-31.986587524414062,-31.163055419921875,-33.18085479736328,31.23030662536621,30.825624465942383,-32.965904235839844,-32.72425079345703,-30.372243881225586,-32.88821029663086,31.39166831970215,30.502674102783203,31.596826553344727,31.564172744750977,-32.12747573852539,-30.213064193725586,32.35905075073242,32.2504768371582,-32.2097282409668,33.99090576171875,-31.736331939697266,30.67938232421875,33.105445861816406,-31.524723052978516,-32.70127487182617,25.13176155090332,32.88941192626953,32.589599609375,31.230186462402344,30.84203338623047,29.96053123474121,-31.4046573638916,29.420068740844727,32.4843864440918,28.22989273071289,-31.90043067932129,30.3028564453125,33.82509994506836,29.9365291595459,31.904422760009766,30.98748016357422,-30.91415786743164,-30.77600860595703,32.1202392578125,-31.22701072692871,-31.470233917236328,-32.739620208740234,30.866365432739258,31.760318756103516,32.9099006652832,-31.855554580688477,-30.198087692260742,-32.22337341308594,-30.834896087646484,29.80535888671875,39.895347595214844,40.660736083984375,-37.61676025390625,-54.9483642578125,-54.19618225097656,17.25087547302246,-43.39506912231445,-36.68767547607422,-38.99901580810547,52.5102424621582,-27.522579193115234,25.95115852355957,-41.07584762573242,-38.45718002319336,-54.86201477050781,36.68153762817383,55.13090896606445,11.392229080200195,39.953216552734375,-27.79258918762207,-10.829875946044922,14.222709655761719,-12.233536720275879,53.725379943847656,15.212701797485352,-15.666523933410645,-39.027164459228516,-27.111791610717773,-55.040313720703125,39.77627944946289,-15.693238258361816,-28.24738883972168,-20.87062644958496,-54.46775436401367,-23.76443862915039,-15.366965293884277,53.90559005737305,-39.150184631347656,55.067481994628906,26.932817459106445,10.772329330444336,-14.116411209106445,-30.897729873657227,28.035594940185547,42.18977355957031,55.1148796081543,40.66459655761719,23.990257263183594,15.877453804016113,54.721839904785156,11.904383659362793,-13.328150749206543,54.87678909301758,28.105493545532227,-53.5453987121582,-53.694557189941406,12.216745376586914,10.34597110748291,55.0768928527832,-55.04285430908203,18.270374298095703,-11.892268180847168,40.215145111083984,-55.073265075683594,-27.595048904418945,28.130741119384766,-40.87552261352539,-13.045753479003906,54.115821838378906,-54.16632080078125,17.696624755859375,7.026080131530762,-3.142653465270996,-3.4079089164733887,-10.294312477111816,14.370450973510742,-24.05194664001465,-3.0461432933807373,-19.4810733795166,-5.32049036026001,-27.6000919342041,8.12440013885498,-19.589397430419922,8.59840202331543,-3.4548041820526123,-2.763259172439575,12.73121166229248,12.53414535522461,17.93273162841797,8.567971229553223,-1.2641246318817139,-8.196481704711914,12.828486442565918,-6.069143772125244,14.173323631286621,-8.343141555786133,-2.9782660007476807,-21.29123306274414,19.416234970092773,20.1452693939209,11.252726554870605,21.149988174438477,-17.86384391784668,5.753576278686523,23.308067321777344,-0.4733424484729767,9.526623725891113,-6.794671535491943,14.192765235900879,-2.814535617828369,3.465073585510254,-20.60672950744629,3.532245397567749,-10.793813705444336,13.677111625671387,-2.7394657135009766,21.618642807006836,-16.688508987426758,-8.462226867675781,3.3714091777801514,2.687976837158203,-7.071159839630127,-8.707396507263184,-17.61315155029297,-18.43505859375,-1.2882699966430664,4.775818347930908,-13.983060836791992,3.534587860107422,8.844731330871582,18.218530654907227,-10.202217102050781,13.678924560546875,26.63153076171875,-25.071020126342773,5.977179050445557,4.953300952911377,-7.588698387145996,-31.92123794555664,3.837125778198242,-8.384002685546875,-13.145893096923828,57.504520416259766,-13.218636512756348,-67.79779052734375,17.39101219177246,8.222649574279785,1.4366847276687622,17.449247360229492,-37.94047164916992,1.265051245689392,24.30741310119629,-19.345258712768555,34.59880447387695,27.041669845581055,14.248894691467285,-0.0018170863622799516,14.101517677307129,12.111730575561523,4.17499303817749,-7.794602394104004,-1.3864243030548096,-8.238916397094727,28.45929718017578,14.103428840637207,1.7470515966415405,7.955556392669678,7.150727272033691,4.336863994598389,-58.94001770019531,-9.132491111755371,-48.2827262878418,-53.58086395263672,4.869964122772217,59.78099060058594,62.01209259033203,23.116893768310547,-3.6452906131744385,-12.887434959411621,-2.6894631385803223,-6.936346530914307,36.634124755859375,-8.598002433776855,65.58395385742188,-10.472553253173828,2.490973472595215,-7.542707920074463,0.029820576310157776,11.946192741394043,55.773963928222656,0.7060385942459106,56.5631217956543,6.8754072189331055,0.12387795001268387,-5.148215293884277,-3.0155649185180664,59.84883117675781,-5.938515663146973,-23.377912521362305,-5.489213943481445,-3.26334547996521,-7.795666694641113,-4.986379146575928,-12.346460342407227,-20.63579750061035,-0.03365541249513626,-1.4604610204696655,-12.188162803649902,-11.032417297363281,7.815905570983887,-3.2568933963775635,0.564575731754303,-1.6972179412841797,0.891527533531189,-15.477965354919434,-15.200663566589355,15.593292236328125,15.113825798034668,13.371694564819336,-14.345978736877441,-0.25404658913612366,13.777311325073242,13.97495174407959,-15.324111938476562,-15.198039054870605,-2.237076997756958,-1.1350059509277344,-13.98298168182373,-13.73888874053955,-15.373512268066406,0.179909810423851,13.473091125488281,15.014711380004883,-3.4020509719848633,-14.92204475402832,-15.068863868713379,2.0263631343841553,-15.126070976257324,-4.994992733001709,-0.7322983741760254,-14.053122520446777,0.7142913341522217,0.5391963720321655,0.3948163688182831,-15.410482406616211,-0.9660686254501343,-13.425209999084473,-0.5045539140701294,-1.8279688358306885,14.873540878295898,13.151835441589355,-0.41767418384552,-14.586101531982422,15.655560493469238,-1.1359871625900269,-0.006482861470431089,-14.723061561584473,3.7607948780059814,0.3826557695865631,15.217628479003906,14.54235553741455,16.10631561279297,-0.8322699666023254,1.4541330337524414,13.455373764038086,0.702946126461029,0.7336491346359253,12.18984317779541,14.562602043151855,-15.307372093200684,0.19043698906898499,-1.171617865562439,-12.537001609802246,-0.3140012323856354,-15.302064895629883,-14.084540367126465,-0.18557418882846832,-0.4733002185821533,-1.4748831987380981,0.4457707405090332,8.204548835754395,7.644699573516846,8.312111854553223,7.146517753601074,7.989293575286865,9.822518348693848,7.8383073806762695,7.44813346862793,-8.029728889465332,-7.0991997718811035,-7.447414875030518,8.919121742248535,-7.853485584259033,7.554427623748779,7.019527435302734,7.334447860717773,-7.31423282623291,6.7126359939575195,7.701951026916504,6.445556163787842,-8.102310180664062,8.540997505187988,-7.6438469886779785,-7.2760820388793945,7.11487340927124,-7.808602809906006,7.879151821136475,6.846583843231201,6.997875690460205,7.547296524047852,6.9474382400512695,6.270174980163574,-7.303203105926514,6.822875499725342,-8.842329025268555,-7.203190803527832,-8.510221481323242,-7.6072235107421875,7.913203716278076,8.293150901794434,18.831336975097656,-7.663413047790527,7.063520431518555,-6.79919958114624,-7.630308628082275,6.077080726623535,-7.907931327819824,7.716845512390137,-8.00555419921875,-7.746281147003174,-8.174213409423828,-7.394007205963135,-7.553720474243164,-7.983502388000488,6.8439507484436035,7.730353832244873,7.7558674812316895,-8.204203605651855,-6.994232654571533,5.049326419830322,6.1876654624938965,8.435543060302734,7.11501407623291,-8.615208625793457,-8.34004020690918,8.220233917236328,-7.165135860443115,-7.851332664489746,-7.74976921081543,7.473904609680176,-7.566286563873291,6.210553169250488,2.1036698818206787,-10.344866752624512,-6.765913486480713,-12.93787670135498,36.706329345703125,-11.459014892578125,1.8687222003936768,7.450271129608154,9.565227508544922,1.9424858093261719,9.898368835449219,-0.036261625587940216,5.288494110107422,-6.577627182006836,-6.459344387054443,-8.971226692199707,-8.582734107971191,9.030354499816895,9.027671813964844,-7.075371742248535,8.641639709472656,-27.253751754760742,-9.723730087280273,-9.807394981384277,6.805668830871582,-6.938047885894775,-8.881890296936035,-3.881875991821289,-7.335200786590576,8.270111083984375,7.283644199371338,-8.851073265075684,8.36986255645752,8.665521621704102,-9.228018760681152,6.881414413452148,6.666935920715332,-6.353805065155029,-12.208860397338867,-6.564446449279785,6.76634407043457,29.00430679321289,-0.4146932363510132,12.851700782775879,-8.92743968963623,3.1164932250976562,-9.088435173034668,-6.371777534484863,8.476123809814453,-5.527114391326904,7.04980993270874,6.364953517913818,9.098891258239746,-6.16317081451416,-11.650861740112305,5.472343444824219,-6.18817663192749,-8.928287506103516,-8.441177368164062,0.06606482714414597,-9.715886116027832,-6.775078773498535,8.30445384979248,-12.1609525680542,-6.231194019317627,7.818931579589844,8.50589656829834,-6.400151252746582,-7.635959148406982,-8.084457397460938,-7.812966346740723,-0.37576156854629517,7.289879322052002,-8.064024925231934,8.048906326293945,-7.4524030685424805,8.709417343139648,-8.212857246398926,7.753688335418701,8.024474143981934,8.553568840026855,7.772563934326172,4.502825736999512,-7.711694240570068,-7.487331390380859,-8.432526588439941,-8.01368236541748,-7.933322906494141,7.600273132324219,7.804084777832031,-7.041691303253174,-7.739442348480225,-8.111590385437012,-7.560544967651367,7.445568561553955,-7.905757904052734,-8.374896049499512,-7.874644756317139,-7.640079498291016,7.13992166519165,-7.558804035186768,-8.242238998413086,-8.602911949157715,8.210531234741211,-8.099794387817383,8.083375930786133,-7.470947265625,5.191083908081055,-7.856785774230957,8.14120864868164,7.636399745941162,8.286520004272461,7.390414714813232,8.139693260192871,-7.964816570281982,7.553497791290283,7.270968437194824,-7.395068168640137,7.551350116729736,-7.475769519805908,7.680451393127441,7.818253993988037,-7.830814838409424,-7.012927532196045,-7.99454402923584,7.3387250900268555,-7.609892845153809,-8.096960067749023,-8.077651977539062,-7.012282848358154,-7.847740650177002,7.27346134185791,7.686323642730713,-7.729569435119629,-7.942929744720459,7.445444583892822,-7.250703811645508,7.760101318359375,20.677932739257812,-24.15401840209961,24.069114685058594,-22.078651428222656,19.286828994750977,-22.570350646972656,23.14612579345703,22.388948440551758,22.879852294921875,-20.21912956237793,23.67288589477539,23.210906982421875,23.885608673095703,-20.264230728149414,-22.082355499267578,21.508575439453125,20.439491271972656,-23.095300674438477,-23.187116622924805,22.563066482543945,20.990713119506836,21.378660202026367,22.056053161621094,-23.77411460876465,-24.766252517700195,-19.50758934020996,-20.021514892578125,22.99138832092285,-21.12242889404297,-22.265161514282227,22.104368209838867,17.593107223510742,-18.14688491821289,-24.489383697509766,19.314796447753906,21.098674774169922,-21.163516998291016,-19.941898345947266,-22.207773208618164,20.370651245117188,-23.36585235595703,22.725828170776367,-19.41197395324707,24.232263565063477,-24.217164993286133,23.019611358642578,-21.79414939880371,-21.486265182495117,-21.69269561767578,19.721418380737305,20.244401931762695,-18.809980392456055,-21.282621383666992,-20.371030807495117,19.340024948120117,22.17374038696289,-20.687538146972656,-24.335716247558594,21.847103118896484,-22.856903076171875,-22.661502838134766,22.21337890625,-22.478517532348633,21.916976928710938,22.251895904541016,-21.727270126342773,21.156217575073242,21.76427459716797,20.686771392822266,21.839048385620117,-1.8511090278625488,-14.150562286376953,0.5289480090141296,-7.492654323577881,1.9596480131149292,-7.825826168060303,0.07056623697280884,-0.5683249235153198,2.2084357738494873,0.9306527972221375,15.894634246826172,-0.42023366689682007,15.231354713439941,2.332181215286255,-4.816739559173584,-15.24281120300293,-15.352972030639648,-2.1615161895751953,-3.431816816329956,-11.286124229431152,-0.9596734642982483,-6.5678205490112305,8.354480743408203,-0.8831647038459778,-9.184616088867188,16.648696899414062,11.615381240844727,-13.440354347229004,-13.969175338745117,14.46750259399414,-13.751416206359863,0.2762235701084137,10.760213851928711,-23.181137084960938,-1.8158705234527588,-4.292629718780518,-9.41606330871582,7.802527904510498,2.0672028064727783,-19.301578521728516,0.729579746723175,-18.761545181274414,15.818084716796875,8.200023651123047,-3.971348285675049,-10.252015113830566,0.6888992786407471,0.9731348156929016,-11.383504867553711,-9.184814453125,-1.7486294507980347,15.470036506652832,-1.5700165033340454,16.096738815307617,-10.392757415771484,-14.729411125183105,-11.285931587219238,1.4167187213897705,12.438216209411621,-8.809996604919434,-3.026625156402588,0.8787673711776733,-14.232745170593262,-12.087654113769531,-6.20070743560791,1.9019064903259277,-17.0172176361084,-6.455353736877441,20.86597442626953,-15.39747142791748,11.908303260803223,-8.610610961914062,-5.43623685836792,-9.131582260131836,7.218155384063721,-8.712247848510742,-5.134950637817383,-6.232719421386719,7.800642490386963,15.448466300964355,-5.988221168518066,-5.307956218719482,16.138383865356445,-16.03156089782715,4.290355682373047,8.11280345916748,17.167213439941406,5.477048873901367,2.9898009300231934,4.394665718078613,6.123961925506592,-6.533877849578857,-5.074790000915527,-9.068902969360352,-9.772907257080078,-7.335695266723633,20.170673370361328,4.56685209274292,-8.98453426361084,-9.11602783203125,-7.7135820388793945,-8.667179107666016,10.233698844909668,7.429153919219971,7.187955856323242,-4.060880661010742,2.6143882274627686,-6.788941860198975,5.754146099090576,-5.553484916687012,-8.156807899475098,10.420408248901367,-9.133810997009277,10.726755142211914,0.5023117065429688,-4.170701026916504,0.7192584276199341,-9.22968578338623,-15.536371231079102,8.713885307312012,8.324710845947266,8.860641479492188,6.679959297180176,-13.287644386291504,-7.590312957763672,7.5576982498168945,-8.32303524017334,7.0075201988220215,11.289591789245605,-12.904436111450195,6.46234655380249,-3.3581907749176025,6.159578800201416,-8.076255798339844,-7.655939102172852,-7.390655517578125,9.398579597473145,-6.450075626373291,8.407084465026855,9.77927017211914,-23.3847713470459,-24.291288375854492,25.951648712158203,-26.55811882019043,26.98294448852539,-24.314647674560547,-24.732952117919922,26.008697509765625,25.555784225463867,-27.215192794799805,25.355091094970703,-24.976673126220703,26.998687744140625,22.87652587890625,26.484806060791016,26.822404861450195,-25.77215576171875,-27.75656509399414,25.181621551513672,-24.86558723449707,-25.292123794555664,-21.865699768066406,27.792444229125977,24.478059768676758,-26.204782485961914,24.06254768371582,-26.940000534057617,24.537187576293945,23.414705276489258,24.99578857421875,24.858238220214844,-25.665414810180664,23.078453063964844,-24.302993774414062,-23.487701416015625,-21.80840301513672,-27.6177978515625,23.33501625061035,23.807323455810547,-23.08859634399414,-23.516633987426758,26.866609573364258,22.965837478637695,-23.66811752319336,25.274742126464844,-24.583248138427734,-27.21044921875,23.92621612548828,22.137222290039062,-24.542593002319336,-25.360570907592773,26.71625518798828,-26.458032608032227,23.57428550720215,27.20854949951172,25.394445419311523,-27.146089553833008,-25.35206413269043,-24.558731079101562,-26.718767166137695,24.93194007873535,27.296865463256836,23.406341552734375,-24.211029052734375,-23.623010635375977,-25.70728302001953,-23.327865600585938,25.86542320251465,26.004838943481445,-23.78948211669922,30.700239181518555,61.900123596191406,-61.53574752807617,-49.537818908691406,-31.16970443725586,12.78450870513916,-60.348331451416016,1.5240111351013184,-61.65576934814453,49.28779220581055,-31.18488121032715,-3.0489068031311035,-70.84144592285156,6.548120975494385,6.688929080963135,-5.600343704223633,-6.765529155731201,79.4932861328125,35.21167755126953,-12.220780372619629,-10.73835563659668,-34.0573844909668,-67.83518981933594,-6.705222129821777,-6.060580730438232,30.003467559814453,6.529945373535156,37.7376708984375,-27.723529815673828,-34.05282211303711,18.480304718017578,18.680442810058594,6.718652725219727,-49.112205505371094,-6.093188285827637,-77.53319549560547,-37.00236129760742,-64.65270233154297,34.800262451171875,-80.90910339355469,-5.453675746917725,-81.13282775878906,7.345730781555176,8.461323738098145,-24.18972396850586,50.0303955078125,66.27458953857422,-53.49635696411133,-6.186567783355713,-20.48061180114746,-5.2145609855651855,7.134491920471191,-31.73332405090332,-80.62947845458984,18.935523986816406,37.1262092590332,-18.45554542541504,19.95892333984375,-17.865856170654297,18.4193115234375,62.19783020019531,36.51808166503906,62.375999450683594,-77.73290252685547,-79.03837585449219,-11.733307838439941,-55.854034423828125,-50.09226608276367,-3.9139742851257324,-31.674579620361328,34.011844635009766,33.60310363769531,-33.54337692260742,-34.18965148925781,-34.267391204833984,-34.349761962890625,-33.3156623840332,34.500946044921875,-10.699499130249023,33.60154342651367,-32.1511116027832,34.1699104309082,-32.86784362792969,34.51988220214844,35.21139144897461,-31.450939178466797,-34.989906311035156,33.390560150146484,33.7159423828125,-25.40079689025879,34.151275634765625,-34.12665557861328,-33.20288848876953,-34.5412483215332,-34.19010543823242,-33.51556396484375,34.09273147583008,-33.4130744934082,-31.46247673034668,-31.044076919555664,-33.70060348510742,33.331626892089844,34.75048828125,-34.64177322387695,34.084754943847656,34.18721389770508,-33.858436584472656,33.82118225097656,33.426246643066406,-32.40687942504883,-34.38908767700195,-32.72705841064453,34.781005859375,34.638916015625,33.256771087646484,27.88974952697754,-32.950965881347656,32.365787506103516,-34.66708755493164,-32.5756721496582,-33.50247573852539,-28.854141235351562,33.54896926879883,30.67481231689453,34.33084487915039,32.88039016723633,-34.30219268798828,33.55704879760742,-34.30662155151367,33.776817321777344,34.401466369628906,-33.87885665893555,34.172733306884766,32.02349090576172,-32.29119110107422,34.30097961425781,32.66045379638672,-33.940155029296875,-34.02838897705078,-33.577415466308594,34.054439544677734,33.42728805541992,-34.336708068847656,-31.609899520874023,-34.84593963623047,-34.49205780029297,-18.299598693847656,-27.47005271911621,-32.63295364379883,33.51567840576172,33.38093948364258,-32.60511779785156,-33.07822799682617,33.961917877197266,33.62004852294922,30.267295837402344,-34.44654083251953,31.01308250427246,33.478004455566406,23.68738555908203,34.041709899902344,26.857261657714844,-33.07177734375,-34.23813247680664,31.59361457824707,30.942644119262695,32.3997802734375,34.073585510253906,29.236412048339844,12.637545585632324,33.5686149597168,33.57436752319336,34.201805114746094,-31.47317886352539,-33.62409591674805,-33.4662971496582,-34.10271072387695,34.189151763916016,-32.77326583862305,-32.15031814575195,-34.635929107666016,20.140695571899414,33.480045318603516,34.13011932373047,-33.484493255615234,33.69453430175781,26.827281951904297,33.53353500366211,-29.29183006286621,-33.74431228637695,-34.11054611206055,28.656612396240234,27.541391372680664,33.867794036865234,33.66765213012695,-34.45792007446289,-34.24299240112305,-33.338287353515625,32.255859375,-33.79818344116211,34.50857162475586,32.05622482299805,34.58161163330078,32.680667877197266,32.12272262573242,33.43943786621094,-34.732872009277344,-33.468990325927734,-33.359188079833984,9.533287048339844,-5.784445285797119,-21.246152877807617,5.649173736572266,5.2950921058654785,-21.423940658569336,5.7838215827941895,5.732639312744141,-21.08384132385254,-20.532365798950195,21.09178352355957,21.449708938598633,5.551057815551758,-5.5725626945495605,5.803619384765625,-21.144088745117188,-5.440264701843262,-20.97019386291504,5.503138542175293,-21.060176849365234,-5.733404636383057,-5.788366794586182,-21.595827102661133,-5.688889026641846,-5.656757831573486,-21.588613510131836,21.295211791992188,5.491184234619141,20.953842163085938,5.350625991821289,21.252437591552734,21.213560104370117,-21.326284408569336,21.520692825317383,-21.4732723236084,-5.716201305389404,-5.535778045654297,21.230756759643555,21.208148956298828,5.691497802734375,-21.397764205932617,-21.68206024169922,-5.7042436599731445,5.466248035430908,5.1763691902160645,-5.453311920166016,21.399110794067383,21.23208236694336,5.490930557250977,21.287433624267578,-5.524166584014893,5.714200973510742,21.341777801513672,21.149675369262695,-5.6363396644592285,-21.076871871948242,-21.17182731628418,5.515376091003418,-20.985370635986328,21.41122055053711,5.361678600311279,-5.57670259475708,-5.347872734069824,-5.401464939117432,5.560825347900391,-5.788822650909424,-21.231290817260742,-21.27040672302246,-5.575075149536133,-5.442330837249756,-21.339143753051758,-13.417320251464844,4.554830551147461,-0.6520202159881592,-5.567434310913086,-7.703729152679443,-11.205452919006348,-1.6130399703979492,1.4913983345031738,2.087620735168457,8.218436241149902,7.790450096130371,0.7314777374267578,-0.7080849409103394,-2.7003514766693115,7.8330159187316895,-8.506778717041016,-8.072941780090332,-13.991625785827637,-12.446085929870605,8.001614570617676,10.425668716430664,-6.237855911254883,11.002371788024902,-8.268111228942871,-14.166455268859863,12.39755916595459,10.796050071716309,-8.086689949035645,8.745443344116211,-13.767855644226074,-7.211151599884033,7.752325057983398,11.720126152038574,-6.491788864135742,8.701530456542969,13.061026573181152,-8.602941513061523,13.25317096710205,-5.470241069793701,-8.066326141357422,-9.470227241516113,-5.5159912109375,13.158732414245605,7.78575325012207,4.338791370391846,7.729269027709961,0.011030266061425209,8.246448516845703,-11.718796730041504,-7.6567816734313965,3.523880958557129,14.621569633483887,-7.987642765045166,7.639614105224609,7.795983791351318,-3.336232900619507,2.927236795425415,5.959661960601807,7.814778804779053,6.937644004821777,0.7457564473152161,-1.9003525972366333,-0.4856046438217163,7.590559005737305,8.28738021850586,-7.4946064949035645,-2.864255428314209,-5.131809234619141,7.868625164031982,-7.781069278717041,-13.551491737365723,13.530126571655273,12.533662796020508,11.410804748535156,-13.09982681274414,-16.0604248046875,-13.172316551208496,-13.68453311920166,-13.673218727111816,13.525460243225098,13.136594772338867,-13.665682792663574,13.063714981079102,-13.229851722717285,11.628094673156738,13.212813377380371,-13.399847030639648,-16.470998764038086,-15.194147109985352,13.57345199584961,13.462665557861328,-13.528797149658203,32.76243209838867,13.031294822692871,0.5080324411392212,13.716933250427246,-13.13254451751709,13.829713821411133,-13.0607271194458,12.889084815979004,13.176239967346191,-12.735427856445312,-11.723947525024414,-16.66672134399414,13.633418083190918,8.93309497833252,17.02428436279297,16.80754852294922,13.052019119262695,-13.574101448059082,-13.575993537902832,13.006101608276367,14.349183082580566,-12.106077194213867,-12.801436424255371,11.804956436157227,11.815014839172363,13.587822914123535,-13.124101638793945,-11.279799461364746,13.255587577819824,14.784512519836426,-13.660621643066406,13.59609603881836,12.73234748840332,-12.591575622558594,11.595916748046875,-12.178643226623535,12.224156379699707,-11.534773826599121,16.73076629638672,13.141458511352539,13.653611183166504,13.668807029724121,12.277046203613281,-12.398489952087402,-13.754347801208496,13.163798332214355,14.84019947052002,-13.018782615661621,-28.554752349853516,-28.489030838012695,28.515193939208984,-28.49138832092285,28.583377838134766,28.489572525024414,28.916854858398438,28.602502822875977,28.461013793945312,-28.45963478088379,-28.423500061035156,28.930185317993164,-28.474945068359375,28.41888427734375,28.52272605895996,27.85576820373535,28.487218856811523,28.39032745361328,27.832372665405273,-28.512937545776367,31.053861618041992,28.556087493896484,-28.41988182067871,-28.503761291503906,-26.656932830810547,-28.67342185974121,28.31420135498047,28.54197883605957,-28.59061050415039,-27.551620483398438,-27.969690322875977,-28.423473358154297,-28.523622512817383,28.643674850463867,-28.445308685302734,-28.394744873046875,-28.46292495727539,-28.59541893005371,-28.589021682739258,28.513973236083984,28.490034103393555,28.448413848876953,-28.447181701660156,28.548192977905273,-28.595569610595703,-28.410385131835938,-28.513330459594727,22.03505516052246,28.53094482421875,-28.44047737121582,28.45229148864746,27.040424346923828,28.509672164916992,-28.6047306060791,28.680789947509766,28.44675636291504,28.405855178833008,28.957853317260742,-28.55782127380371,-28.515026092529297,28.357603073120117,-28.523292541503906,-28.478618621826172,-28.459880828857422,-28.496519088745117,28.49723243713379,28.58579444885254,-28.441259384155273,-28.4061222076416,28.5355281829834,-31.382240295410156,-31.467697143554688,31.52558708190918,-31.50582504272461,-31.45165252685547,-31.386306762695312,31.41424560546875,31.415283203125,31.51724624633789,31.530105590820312,-31.444929122924805,31.49675178527832,-31.499820709228516,31.46380043029785,31.3931941986084,-31.482967376708984,-31.491344451904297,-31.49850845336914,31.4376220703125,-31.506216049194336,-31.493988037109375,-31.524398803710938,-31.414649963378906,31.388023376464844,-31.451541900634766,31.44618034362793,31.39080047607422,-31.491439819335938,31.44078826904297,31.47477912902832,-31.437286376953125,-31.437679290771484,31.477497100830078,-31.429508209228516,-31.482772827148438,-31.454984664916992,31.4544677734375,31.47992515563965,31.397153854370117,-31.515832901000977,31.45150375366211,31.43405532836914,31.518054962158203,31.380971908569336,31.51847267150879,31.42704963684082,-31.448211669921875,31.499067306518555,31.37972640991211,-31.45463752746582,-31.41512680053711,31.471397399902344,31.402605056762695,31.47910499572754,31.379608154296875,31.51091766357422,31.39857292175293,-31.408966064453125,31.389249801635742,-31.511091232299805,31.49490737915039,31.42902374267578,-31.47028923034668,-31.423738479614258,-31.41388511657715,31.447423934936523,-31.452489852905273,-31.40327262878418,-31.483875274658203,-31.448938369750977,-0.15883028507232666,1.0883971452713013,-1.5630922317504883,0.4588456451892853,0.5653444528579712,1.4124799966812134,-0.8688240051269531,-0.7102035880088806,-2.160115957260132,0.7313640713691711,-0.6109113693237305,-0.5099804401397705,0.05751203000545502,-0.4483330547809601,-0.10978071391582489,-1.1076979637145996,-1.1922239065170288,1.5029106140136719,1.47518789768219,0.2905547618865967,-0.39133256673812866,0.03715172037482262,-0.7344843745231628,-0.8235086798667908,1.9969342947006226,1.3776330947875977,0.4000217914581299,2.2390270233154297,0.9217614531517029,0.16630803048610687,-0.4688868224620819,0.5603678226470947,-0.8164682388305664,1.0830796957015991,0.5226151347160339,-0.8629361391067505,1.1728402376174927,-1.6664859056472778,-1.0706706047058105,-1.7882522344589233,1.5405668020248413,-0.5068876147270203,-0.2970138192176819,-0.7928227782249451,0.6276286244392395,-0.5272712707519531,2.445324182510376,1.1162303686141968,0.9799795746803284,0.9622083306312561,0.36191362142562866,-0.9765787720680237,0.8335056900978088,0.4653358459472656,-0.6822547316551208,1.298299789428711,0.5159944295883179,0.9523307085037231,-0.2213580459356308,-0.7863689661026001,0.03431930020451546,-0.9739716053009033,0.19881422817707062,-0.09679434448480606,-0.6380323767662048,0.5548263788223267,-2.029712677001953,-1.2320423126220703,-0.9598058462142944,1.1250269412994385,-0.6024677753448486,0.6568704843521118,-2.9104247093200684,0.7724138498306274,0.778361976146698,-1.2819061279296875,-1.6202536821365356,0.6759220957756042,-0.405120313167572,-1.6261935234069824,0.33340850472450256,-3.782773971557617,0.05995665490627289,-0.18503965437412262,-2.336799144744873,-3.9673287868499756,-1.173487663269043,1.262346625328064,0.4181349575519562,0.0830933153629303,-0.10226482152938843,-0.5347937345504761,-1.1269508600234985,0.07812067866325378,2.276315689086914,1.5172590017318726,0.011896517127752304,1.3456262350082397,1.2510348558425903,3.240149736404419,0.6870304346084595,0.7602970600128174,6.4733805656433105,-0.13991306722164154,-1.518767237663269,-3.5530498027801514,-0.3338190019130707,-0.5759305953979492,0.3384639024734497,-2.0713744163513184,0.5338165760040283,-1.2269538640975952,-0.2845954895019531,-6.780531883239746,1.185787558555603,-1.5899195671081543,0.6158761978149414,1.0209510326385498,1.3260250091552734,-7.402004241943359,0.6838721036911011,-2.920536994934082,-0.9120802879333496,-0.5076388120651245,-0.16474296152591705,0.4744611978530884,0.44483301043510437,0.040486548095941544,-0.06081731617450714,1.809085726737976,1.620398759841919,-0.7221863865852356,0.8067358732223511,0.41248273849487305,-0.8592638969421387,-0.5954853892326355,-0.19575539231300354,-0.01873600482940674,-0.16888892650604248,1.482292890548706,2.1842641830444336,1.6519423723220825,0.9347718358039856,-2.456273317337036,1.6626299619674683,-2.5245375633239746,1.1296329498291016,2.9153385162353516,2.4128262996673584,-1.1288529634475708,-2.167459487915039,0.9315699338912964,1.2566356658935547,-2.5712764263153076,1.633059024810791,1.163355827331543,2.1189188957214355,-1.4108660221099854,-0.9267261028289795,-1.1799167394638062,-3.767465353012085,1.5909290313720703,2.5269038677215576,-3.31231689453125,-1.0615770816802979,-1.446750283241272,-1.843145728111267,-1.3747910261154175,-1.2162599563598633,-1.8871601819992065,-1.4955635070800781,-1.208786964416504,1.0702348947525024,-1.6636568307876587,-1.2140583992004395,1.6288748979568481,-1.4414103031158447,1.137021541595459,-4.592573165893555,1.8920375108718872,1.4487875699996948,1.1644784212112427,-6.222219944000244,0.8993162512779236,4.173703670501709,1.174283504486084,-1.401999592781067,1.4057800769805908,-1.9007630348205566,78.03711700439453,-22.212045669555664,1.3610726594924927,-2.592486619949341,0.9741408228874207,0.7715793251991272,1.0709707736968994,-1.4187155961990356,-2.3003525733947754,1.2252213954925537,-1.2618358135223389,-1.4433327913284302,2.1334259510040283,-0.8172653317451477,-10.721250534057617,-2.4834272861480713,6.249714374542236,1.6834697723388672,1.9463756084442139,7.319821834564209,1.0027776956558228,2.902164936065674,-37.6048583984375,33.958740234375,53.37923049926758,-110.81514739990234,-44.299110412597656,41.54425048828125,26.659439086914062,30.272268295288086,-1.9864842891693115,31.326534271240234,-49.273277282714844,32.05943298339844,-18.51644515991211,4.567979335784912,11.572013854980469,-15.953988075256348,-48.113311767578125,-20.339576721191406,83.39847564697266,-23.24785041809082,2.095003604888916,47.256256103515625,84.18336486816406,-17.095643997192383,-19.719301223754883,-22.587522506713867,-8.677669525146484,23.879804611206055,-14.951475143432617,-40.13709259033203,-172.14068603515625,51.24113845825195,86.71351623535156,-225.20652770996094,158.17169189453125,-25.254539489746094,169.8535919189453,-10.824261665344238,8.323156356811523,-58.27814483642578,27.966114044189453,-3.163743019104004,-62.45800018310547,-19.84790802001953,-42.845340728759766,-6.8785014152526855,23.935211181640625,-32.336368560791016,-96.88957977294922,-12.495804786682129,25.966861724853516,-1.4717351198196411,15.002973556518555,2.067448854446411,13.790276527404785,-40.501747131347656,-15.213457107543945,9.253620147705078,-56.312320709228516,15.198922157287598,41.9547233581543,28.19839096069336,119.72900390625,2.1279444694519043,58.242156982421875,2.1807265281677246,28.198110580444336,26.176273345947266,2.3545515537261963,-0.09149908274412155,-0.08966729044914246,0.08825510740280151,-0.02578151784837246,-0.04457693547010422,0.046917133033275604,0.036735087633132935,0.020279772579669952,0.03265034407377243,0.058101851493120193,0.024947309866547585,-0.05166983976960182,-0.07041753083467484,-0.034963153302669525,-0.06332508474588394,-0.037293147295713425,-0.027130555361509323,0.02483510598540306,0.13945242762565613,-0.06216927990317345,-0.35113969445228577,-2.0495262145996094,-0.041492022573947906,-0.020156430080533028,-0.0960833802819252,-0.007066293153911829,0.015973391011357307,-0.07860177010297775,0.038115885108709335,-0.1038922443985939,-0.03063986636698246,-0.06774824112653732,-0.054324012249708176,-0.1333414912223816,-0.0026544576976448298,0.01387691032141447,0.02745382860302925,-0.08714369684457779,0.051881253719329834,-0.03948640450835228,0.05154677480459213,0.041992537677288055,0.0009726905846036971,0.01647965796291828,0.04021031782031059,0.01175722572952509,0.03218328580260277,-0.17204423248767853,-1.000848650932312,-0.5413240194320679,-0.08671307563781738,0.0465826690196991,-0.01244579441845417,-0.3245448172092438,-0.03947759419679642,-0.08855166286230087,0.09032401442527771,-0.10920754075050354,0.0210438035428524,0.22900961339473724,-0.002278717001900077,-0.03795773535966873,-0.07297056913375854,-0.49629175662994385,0.002141777891665697,-0.012302868999540806,0.11083655059337616,0.11274561285972595,0.3138467073440552,0.08047448843717575,43.95454025268555,5.043996334075928,-14.284825325012207,43.87850570678711,15.728042602539062,10.610873222351074,-43.901947021484375,-8.098810195922852,-8.11732292175293,-5.761655807495117,6.04888916015625,-6.03456974029541,19.094186782836914,-9.25943374633789,23.402923583984375,43.88703918457031,43.89688491821289,-9.297359466552734,-8.381507873535156,5.998349189758301,6.662341594696045,-14.146090507507324,21.01487159729004,-17.49067497253418,-37.96124267578125,14.929969787597656,-5.0068817138671875,43.88734436035156,-43.93452072143555,-10.76975154876709,5.69946813583374,5.164307117462158,-9.446245193481445,43.986759185791016,6.805938243865967,-22.921167373657227,-15.267887115478516,-14.564292907714844,-5.26035213470459,-6.176177024841309,-13.600921630859375,8.409523963928223,-6.323902130126953,43.9342155456543,8.105158805847168,-14.02706527709961,-13.168217658996582,-15.768669128417969,10.900250434875488,13.68415641784668,18.117454528808594,-11.602134704589844,-24.13240623474121,43.878662109375,6.639571666717529,13.060352325439453,-12.546802520751953,8.535866737365723,-34.99216079711914,37.80034637451172,-8.80531120300293,-42.42929458618164,31.302640914916992,6.566544532775879,6.127470016479492,-6.812731742858887,-31.085241317749023,6.788379192352295,13.821520805358887,6.362617015838623,-52.48423767089844,-67.80358123779297,67.76866912841797,67.80130004882812,40.2651252746582,67.84550476074219,67.75102233886719,63.65269470214844,67.19619750976562,67.81649017333984,-67.77194213867188,-43.4598503112793,67.84140014648438,25.569520950317383,67.71484375,-63.236846923828125,-44.13994216918945,67.73544311523438,67.73373413085938,67.74772644042969,67.72936248779297,-67.8326644897461,-67.76400756835938,-67.78239440917969,-67.7899169921875,24.577966690063477,30.395963668823242,50.8933219909668,67.81192779541016,-65.30595397949219,-67.78008270263672,-67.71769714355469,67.83792114257812,60.16426467895508,67.71427917480469,-67.77031707763672,67.69165802001953,-67.75617218017578,-67.77594757080078,-42.647789001464844,67.76107025146484,67.69742584228516,41.595951080322266,-67.79414367675781,-58.28032302856445,-45.969383239746094,-67.81415557861328,67.8027114868164,-67.84012603759766,-42.266876220703125,-40.59490966796875,67.69054412841797,-35.29743957519531,67.71387481689453,-67.80256652832031,67.70104217529297,-67.76837921142578,-44.939918518066406,-67.80203247070312,48.2363166809082,67.84213256835938,67.83760070800781,-67.80598449707031,-67.72135162353516,67.7066421508789,67.78441619873047,-67.77820587158203,65.72791290283203,-67.84358215332031,-67.75726318359375,80.81160736083984,-31.2559871673584,54.30366134643555,-80.65599060058594,58.23936462402344,54.47867202758789,-50.33339309692383,-80.72098541259766,80.72169494628906,-55.7244987487793,32.177059173583984,48.857704162597656,-80.7447509765625,-49.818748474121094,-80.79826354980469,-80.70895385742188,-80.80286407470703,51.98318099975586,37.15129470825195,-75.03278350830078,-47.83232116699219,79.08329010009766,80.79643249511719,80.7405014038086,80.75370788574219,-61.6198616027832,67.15738677978516,-37.8236083984375,-36.402835845947266,80.72394561767578,-57.36003494262695,-80.81047058105469,-68.26869201660156,-80.69288635253906,80.6812515258789,80.78038024902344,-80.72012329101562,-64.7247314453125,80.7867202758789,65.96045684814453,74.89618682861328,-42.490753173828125,80.78279876708984,-52.64620590209961,-80.69851684570312,80.69158172607422,80.79302215576172,-42.87260818481445,-28.388668060302734,-80.65888214111328,54.14377975463867,80.7556381225586,-47.88520431518555,-80.79225158691406,-76.7929458618164,-73.66949462890625,72.18279266357422,-80.78252410888672,80.7967300415039,73.79027557373047,46.41714859008789,80.7644271850586,-80.70352172851562,-71.68700408935547,-44.31513595581055,55.848758697509766,-61.876773834228516,80.8072738647461,-80.77603149414062,-80.74774932861328,-67.81587982177734,67.76830291748047,-48.00094985961914,8.597176551818848,8.55921745300293,8.443882942199707,-10.261550903320312,-62.300968170166016,-37.25341796875,-60.44392776489258,7.3587965965271,-7.817204475402832,-52.525962829589844,-67.72173309326172,7.155374050140381,8.108604431152344,-8.445558547973633,7.472289085388184,7.419004440307617,27.11648178100586,-8.114416122436523,-67.71819305419922,-12.04857349395752,-67.8067626953125,50.814334869384766,-67.8088607788086,-41.22019577026367,34.274024963378906,7.144532203674316,7.478257656097412,52.17966079711914,40.3419075012207,-26.70698356628418,19.803428649902344,18.10964012145996,-7.102845191955566,67.72035217285156,-16.410898208618164,-7.371075630187988,-7.020350933074951,67.74777221679688,-67.79325866699219,-67.78775787353516,-7.863114833831787,48.18601608276367,-8.175864219665527,43.777679443359375,-67.77132415771484,63.28999328613281,-7.044888019561768,64.69820404052734,-23.23969841003418,-6.963224411010742,-67.79876708984375,7.096728801727295,7.064535140991211,7.278203010559082,67.75220489501953,-7.364221096038818,7.626459121704102,7.256556510925293,-53.38959503173828,7.129605770111084,54.01621627807617,67.79869079589844,-66.23614501953125,-6.995190620422363,-7.008966445922852,-11.002776145935059,67.8230209350586,0.7312294244766235,0.8611065149307251,3.1995010375976562,-1.929313063621521,1.676732063293457,-7.819201946258545,-1.5822170972824097,2.9609200954437256,50.161827087402344,-0.6030506491661072,-1.9097331762313843,1.2142587900161743,0.5627367496490479,-4.948533535003662,3.6828062534332275,4.461446762084961,0.6375259757041931,-0.9963331818580627,1.016717553138733,-2.0035879611968994,0.7187860608100891,0.48681411147117615,0.8284997344017029,-0.5940630435943604,1.972762107849121,-1.4598382711410522,1.1935346126556396,-0.6551543474197388,-6.228278160095215,41.146610260009766,-1.177312970161438,-1.8720535039901733,-1.3807698488235474,0.918236255645752,-0.9426490068435669,1.2582679986953735,-3.542384147644043,-0.971733570098877,1.0692033767700195,0.6485811471939087,1.5643020868301392,-6.004794120788574,-0.7093149423599243,0.6129900217056274,-3.9077069759368896,0.8925842046737671,-0.5003779530525208,1.1958696842193604,-0.556425929069519,1.0867962837219238,-2.6613271236419678,4.017211437225342,6.151723861694336,-2.523664712905884,-1.7799750566482544,1.5163060426712036,-0.4789273142814636,-0.6904780864715576,-8.933605194091797,-0.9753078818321228,-2.100064992904663,4.453866004943848,-1.1907328367233276,-18.990345001220703,-0.5436112284660339,1.0721712112426758,1.2790690660476685,1.2294355630874634,-1.574838638305664,0.4568515717983246,-14.204978942871094,1.5500770807266235,-0.9214416146278381,4.502813816070557,6.284989356994629,1.02885901927948,-48.83773422241211,-2.1596004962921143,-0.9217397570610046,3.5012614727020264,-0.9048564434051514,3.5722219944000244,-2.328336000442505,0.7606772780418396,-1.4230514764785767,-0.6585615873336792,-1.0198745727539062,6.634334087371826,1.1819058656692505,-2.3996787071228027,-4.2734527587890625,1.2359973192214966,-1.4490952491760254,-2.476314067840576,2.1551871299743652,1.941068172454834,0.7932624220848083,2.255352735519409,5.082830905914307,-5.382920742034912,-0.758530855178833,-3.570516586303711,1.5732223987579346,3.1862943172454834,1.5842787027359009,-3.872145175933838,-6.629502296447754,-1.2533780336380005,-2.2495906352996826,-1.0835598707199097,2.6631386280059814,-13.275981903076172,-18.27212142944336,0.9398114681243896,-1.9688143730163574,3.177175998687744,2.5084314346313477,1.8341302871704102,1.3962101936340332,18.1160888671875,-17.973291397094727,-14.35134506225586,1.1425402164459229,1.4055718183517456,-1.9579402208328247,6.735081672668457,6.388355255126953,-1.7346793413162231,0.9150633215904236,-4.57562255859375,-2.3336539268493652,-1.1919450759887695,-1.086870789527893,-3.6413183212280273,-0.9928948283195496,-4.047738552093506,-2.273892402648926,-0.8416799306869507,-8.367112159729004,1.0950864553451538,4.704577922821045,-6.422463893890381,3.535179853439331,-1.8435001373291016,0.8083252906799316,0.8535552024841309,1.9307268857955933,2.556029796600342,-0.9108095169067383,0.9407499432563782,4.3162126541137695,1.4622300863265991,0.7529336214065552,14.782271385192871,-0.5558313131332397,-0.3935800790786743,-20.27834129333496,-6.074068546295166,0.7457935810089111,-0.5181240439414978,-0.557396650314331,2.350454807281494,15.670279502868652,5.358725070953369,-11.905902862548828,-35.14146423339844,0.6153906583786011,-5.925796031951904,-2.3558602333068848,6.305954456329346,-1.6123151779174805,-0.6592572331428528,0.6352477073669434,-2.615978956222534,-4.485923767089844,-5.417358875274658,-3.5957024097442627,-0.667341947555542,16.822776794433594,29.76983070373535,1.0693563222885132,-7.602187633514404,-3.2981479167938232,0.6738011240959167,-0.706943154335022,1.7332499027252197,1.1884479522705078,-1.5533201694488525,-0.4684543013572693,-3.767998695373535,1.733375906944275,5.489373683929443,0.4310563802719116,-7.238882541656494,-1.5172522068023682,-25.033540725708008,1.9988478422164917,-0.4311085343360901,0.857087254524231,-4.6816534996032715,-2.3653626441955566,1.6705394983291626,-0.5574666261672974,-0.6264458298683167,-0.5358414649963379,-9.15733814239502,-2.9222702980041504,-1.49492609500885,-5.9405364990234375,-5.3865203857421875,113.60574340820312,0.7432155609130859,-0.48616525530815125,-0.2508254647254944,-2.210602045059204,-2.6953279972076416,-0.9237644672393799,0.9683414697647095,-0.24899573624134064,-42.909664154052734,2.008838176727295,0.321124792098999,-0.780322790145874,-109.56175231933594,1.7788619995117188,3.0367796421051025,-0.3979649543762207,-2.1892528533935547,-3.8379411697387695,0.7372356057167053,1.5306676626205444,2.0123558044433594,3.4087624549865723,3.9837474822998047,-0.9753648042678833,-27.188507080078125,-38.11078643798828,-0.7780059576034546,-0.6023696660995483,0.6205286383628845,0.7511702179908752,0.36209478974342346,2.7044425010681152,-0.30393803119659424,-0.5776825547218323,0.5433772802352905,0.44029027223587036,0.5592007040977478,0.4072610139846802,1.0178366899490356,-16.310606002807617,-0.9025664329528809,2.860438108444214,1.4214918613433838,-0.48100316524505615,3.0014355182647705,0.8926010131835938,2.9254648685455322,-1.9434324502944946,-0.3996816873550415,6.822120189666748,-0.6293790936470032,-2.4191195964813232,3.9004440307617188,-0.6710363030433655,-1.7544596195220947,-6.650256633758545,0.6799306869506836,-78.8420639038086,-0.8308475017547607,-6.172432899475098,1.6086268424987793,0.7243720889091492,0.02317162975668907,1.601970911026001,-0.5067718625068665,-1.074224829673767,1.4156267642974854,4.450562953948975,-1.66953706741333,0.5311102271080017,1.2424827814102173,-2.1813416481018066,2.732527256011963,-0.3118229806423187,-23.92961311340332,0.7455957531929016,0.42406290769577026,2.0368051528930664,-0.5778961181640625,60.55984115600586,0.3474233150482178,0.5014634132385254,-0.39312443137168884,-0.4581854045391083,0.9719846248626709,0.8401919603347778,-0.6757147908210754,-1.5381498336791992,-1.3702921867370605,-0.5985425114631653,0.8397355675697327,1.0950641632080078,2.260178327560425,-2.5125927925109863,-0.28163161873817444,-0.6659016609191895,-0.4818500578403473,-0.7793745398521423,-2.582139253616333,-0.6745400428771973,-1.068266749382019,1.3974053859710693,4.740860462188721,-0.8186712861061096,1.5745753049850464,-1.774996042251587,1.2733234167099,9.551033020019531,0.37465205788612366,1.5313907861709595,1.333780288696289,-0.7142581343650818,0.5539469718933105,-1.6600511074066162,0.8077023029327393,-0.8284726142883301,-0.7899847030639648,-2.1554603576660156,1.148738145828247,0.41091421246528625,0.448477566242218,0.5309193134307861,42.05561828613281,0.660915732383728,4.6288299560546875,-2.398257255554199,0.36416634917259216,0.4657808244228363,-0.8275763988494873,-1.0958797931671143,-2.1996943950653076,-0.5906434655189514,-7.661374568939209,-0.9564989805221558,-0.347520112991333,-1.0710505247116089,-1.7093148231506348,-4.114992618560791,-1.9983044862747192,-138.84483337402344,-146.7246551513672,146.71963500976562,-146.4591522216797,146.66717529296875,146.80081176757812,-146.6682586669922,65.48394775390625,146.2644805908203,-146.8108673095703,146.6832275390625,146.80886840820312,-146.6658935546875,-146.75390625,146.38047790527344,146.59329223632812,144.48435974121094,146.8036346435547,146.75059509277344,-145.64903259277344,-146.76205444335938,146.69139099121094,-144.88735961914062,146.768798828125,146.8175048828125,-146.6682891845703,-146.62879943847656,-146.71559143066406,-146.69175720214844,-145.99217224121094,-146.65467834472656,-146.67124938964844,-146.7500762939453,-146.23162841796875,146.55763244628906,146.6463165283203,-145.4619598388672,-146.6963348388672,146.52700805664062,146.76947021484375,146.7813720703125,-146.70106506347656,-146.49429321289062,-146.69876098632812,146.0496826171875,-146.58445739746094,-146.6480712890625,-146.7213592529297,-146.72430419921875,145.83294677734375,146.6948699951172,146.55316162109375,-146.7950439453125,-146.67694091796875,-146.74696350097656,-146.47775268554688,146.75350952148438,-146.51104736328125,146.57608032226562,146.74896240234375,146.75067138671875,-54.16207504272461,-146.529541015625,-146.1250457763672,-146.7535858154297,146.81886291503906,146.0812225341797,146.5543670654297,-146.73492431640625,146.59580993652344,89.05962371826172,-43.150760650634766,22.930143356323242,-38.34290313720703,-26.902070999145508,-32.284881591796875,23.63886833190918,80.87518310546875,39.841121673583984,42.642372131347656,42.87638473510742,20.474714279174805,-146.77557373046875,74.88055419921875,-124.68358612060547,66.81631469726562,-59.12118148803711,90.70330047607422,111.4089126586914,-68.20639038085938,-73.3205795288086,-27.163408279418945,32.76627731323242,-34.39234924316406,-28.309370040893555,-26.555191040039062,24.05436897277832,70.86978912353516,-146.793701171875,99.50956726074219,-45.16090393066406,-104.25810241699219,26.928070068359375,146.73426818847656,-85.36278533935547,37.41792297363281,29.31650161743164,24.162677764892578,146.82046508789062,33.6800422668457,-36.95555877685547,-92.1299819946289,35.0145378112793,23.989593505859375,-32.292823791503906,22.329235076904297,40.1768684387207,-93.93685150146484,-30.563180923461914,-146.74102783203125,-126.8636474609375,19.94588851928711,57.54338836669922,61.437252044677734,-132.83119201660156,-42.295230865478516,-62.24645233154297,-26.543031692504883,18.89961814880371,110.81085968017578,-46.014930725097656,-65.4400405883789,-63.31412124633789,146.6843719482422,-146.8225555419922,-126.65650177001953,-102.98209381103516,-102.65817260742188,146.77330017089844,-110.0661849975586,-68.7271957397461,-146.7449951171875,146.7771759033203,146.7764434814453,146.67584228515625,-146.7928009033203,-146.7069549560547,100.90811157226562,146.7764434814453,-79.21920013427734,146.73924255371094,146.7138671875,-146.70803833007812,146.8039093017578,146.8074188232422,146.72744750976562,-146.72511291503906,146.81715393066406,125.69115447998047,112.06159210205078,146.72166442871094,-73.70608520507812,-145.1024932861328,-146.73977661132812,-107.81602478027344,-56.96638870239258,146.6947784423828,95.76031494140625,113.73281860351562,146.75048828125,-146.69009399414062,146.7397918701172,-146.70103454589844,100.88081359863281,146.79940795898438,-146.69451904296875,146.81341552734375,-127.61055755615234,-146.80252075195312,-146.6997833251953,146.78993225097656,-134.82264709472656,127.34745788574219,-146.78419494628906,146.68850708007812,-146.76397705078125,146.7655792236328,-146.76087951660156,146.75218200683594,-146.80355834960938,146.7001190185547,146.8137664794922,-125.02178955078125,146.6748046875,93.94696044921875,85.36150360107422,-146.78758239746094,146.75387573242188,-115.09295654296875,146.69924926757812,146.79684448242188,-146.6769561767578,146.8111572265625,146.6949005126953,146.70318603515625,146.73324584960938,-146.79403686523438,-146.67129516601562,-146.7374725341797,-146.79879760742188,18.509544372558594,-21.129772186279297,-39.05747985839844,38.80097961425781,12.04241943359375,37.656044006347656,36.368682861328125,-39.08925247192383,-39.01551055908203,-31.13036346435547,39.1533088684082,-39.176143646240234,37.50956726074219,-37.338768005371094,-39.217620849609375,19.00872230529785,25.277172088623047,39.14969253540039,-39.17145538330078,39.12440490722656,39.21454620361328,22.35233497619629,37.88033676147461,-26.20700454711914,-28.456924438476562,35.9790153503418,-38.91370391845703,39.06826400756836,35.32490158081055,-23.571474075317383,39.21748352050781,38.97138595581055,29.799673080444336,-13.18416976928711,39.081058502197266,38.04863357543945,-39.14402389526367,30.020545959472656,-39.06834411621094,10.46417236328125,-39.13107681274414,-39.115562438964844,-37.70002746582031,-39.099815368652344,-34.365501403808594,-38.82362747192383,39.05250549316406,-39.072120666503906,-35.43705749511719,37.53905487060547,39.13275909423828,-39.15275955200195,-39.14591979980469,-5.436094284057617,-38.742279052734375,-39.09302520751953,-35.12989044189453,38.924598693847656,-22.67804527282715,38.086395263671875,-38.47636032104492,-38.886966705322266,39.02257537841797,38.26774215698242,39.054630279541016,-39.22108459472656,25.584917068481445,38.715885162353516,39.21990966796875,30.072813034057617,146.74871826171875,-146.75033569335938,128.0301055908203,-146.7685089111328,-146.76243591308594,-146.77529907226562,146.77398681640625,113.13436889648438,120.29835510253906,146.82052612304688,-95.09166717529297,117.126220703125,-146.54127502441406,146.8201904296875,146.72227478027344,-146.6834259033203,146.7321319580078,-95.23321533203125,146.69862365722656,-126.22679901123047,-124.95751190185547,146.66842651367188,146.76278686523438,146.71832275390625,-146.81143188476562,146.80984497070312,124.3004150390625,-129.513916015625,-146.75970458984375,-146.80368041992188,-106.83824157714844,-146.79522705078125,146.81263732910156,-146.7606201171875,-131.28695678710938,-146.78334045410156,146.71340942382812,146.7889862060547,142.6920928955078,146.76861572265625,146.7317352294922,122.91464233398438,146.77792358398438,127.2957763671875,-146.791259765625,146.6669158935547,-130.7213897705078,133.34620666503906,-146.78839111328125,-146.78074645996094,-120.30066680908203,108.18319702148438,116.92314147949219,146.68228149414062,146.78228759765625,146.70603942871094,-146.79615783691406,-124.46531677246094,146.7872772216797,-146.74449157714844,146.7804718017578,146.759765625,-131.10940551757812,-146.7254638671875,-129.58067321777344,120.7026138305664,146.78526306152344,-146.7826385498047,-146.70704650878906,-146.78390502929688,-1.4149062633514404,-2.4618027210235596,3.3304684162139893,4.505655765533447,0.5553178787231445,1.1522424221038818,-0.6884719133377075,-0.8915272951126099,4.331183433532715,-0.3897218704223633,2.840378761291504,-0.6696538925170898,-0.3817707598209381,1.1686012744903564,0.35346874594688416,-0.8966299295425415,-1.6277778148651123,0.5807549357414246,1.015007734298706,-1.2852058410644531,32.4632682800293,-1.692527413368225,17.523096084594727,1.3231467008590698,1.0650852918624878,0.593893826007843,0.6970531344413757,0.8949514031410217,1.0035433769226074,0.4392305910587311,6.266490459442139,2.1112866401672363,-0.37542232871055603,1.5953385829925537,-1.3599858283996582,-0.43821391463279724,-5.952075004577637,-0.3184162974357605,1.296640396118164,-0.7343374490737915,0.39670589566230774,-0.4141971170902252,2.454639434814453,-0.6394448280334473,0.48723822832107544,-0.22994539141654968,0.4842391610145569,0.4516150951385498,1.566452980041504,-1.498777151107788,-0.8019635677337646,-0.4603762924671173,-0.462310791015625,-6.570472240447998,-0.4190754294395447,-3.9138169288635254,0.571862518787384,-0.36164364218711853,-0.45908835530281067,1.3201231956481934,0.29927366971969604,0.7947349548339844,0.8047271370887756,-0.7869029641151428,-1.2610242366790771,0.47819310426712036,-36.787567138671875,2.317009687423706,-3.0287930965423584,-1.248814582824707,-11.132528305053711,-17.977497100830078,2.649386167526245,13.408015251159668,-2.4066593647003174,-3.1327052116394043,2.6871869564056396,3.140800952911377,18.022769927978516,3.6723926067352295,2.1825432777404785,5.938383102416992,-11.240522384643555,6.210093021392822,4.262308597564697,-8.586664199829102,-7.522764205932617,-3.981536388397217,-4.927165985107422,-49.0450553894043,11.656664848327637,-7.1049675941467285,4.82724142074585,-3.353595495223999,-1.991491675376892,1.9729655981063843,10.384591102600098,-16.516239166259766,-97.92323303222656,-2.0064167976379395,10.858223915100098,-9.593817710876465,3.097156286239624,-26.98869514465332,-5.523952007293701,5.1881232261657715,-10.768478393554688,2.021437644958496,-9.242894172668457,-6.399229049682617,-2.5429861545562744,2.49902606010437,4.358161449432373,4.311019420623779,-4.97547721862793,3.577467203140259,-1.9686739444732666,7.576911449432373,-9.335320472717285,38.21907043457031,-5.703962802886963,1.842684268951416,14.364013671875,44.219512939453125,58.85847091674805,3.136932134628296,-12.629171371459961,-4.513514995574951,10.330949783325195,-16.014673233032227,-1.6885321140289307,10.91533374786377,-4.988424777984619,6.740902423858643,2.0136072635650635,-10.778973579406738,1.7296065092086792,34.4312858581543,18.01327896118164,-26.60390281677246,-26.364824295043945,41.69126510620117,-12.608331680297852,16.660938262939453,60.80179977416992,23.254281997680664,67.56181335449219,-25.372379302978516,-15.025461196899414,-65.07962799072266,-11.698135375976562,75.60794067382812,-36.30794906616211,22.82181739807129,-37.447139739990234,-26.51360511779785,-11.413610458374023,13.391789436340332,22.862791061401367,-30.286176681518555,-29.448776245117188,24.102054595947266,-13.039284706115723,-26.243986129760742,16.9302978515625,13.626335144042969,22.445072174072266,12.281766891479492,24.273963928222656,-30.298702239990234,-20.010356903076172,-26.630844116210938,22.19281005859375,17.7221736907959,36.88654708862305,-15.87182903289795,33.64735794067383,-24.08609962463379,-25.46013641357422,-9.244135856628418,15.84934139251709,35.7998046875,30.309885025024414,20.800235748291016,-23.05384063720703,-56.390804290771484,22.20998191833496,24.050920486450195,22.876527786254883,78.42084503173828,-53.99501419067383,54.010414123535156,29.182058334350586,14.39481258392334,-16.863550186157227,62.07887268066406,24.77044105529785,-43.708717346191406,26.164302825927734,50.417999267578125,-74.63809967041016,-19.067289352416992,-20.77788543701172,-28.742631912231445,-30.13057518005371,56.961910247802734,-18.451183319091797,-11.777228355407715,-42.62540817260742,11.142158508300781,84.89906311035156,-98.18905639648438,27.235078811645508,-64.4051742553711,-36.5711784362793,-53.1960563659668,41.70409393310547,92.920166015625,59.09278869628906,29.99399757385254,56.83723449707031,43.23841094970703,-146.70399475097656,48.72119140625,-117.6989974975586,53.55391311645508,-122.04911804199219,132.97567749023438,124.75640106201172,-79.3332748413086,-104.09605407714844,-32.52077102661133,62.579811096191406,-146.68765258789062,-35.51701354980469,-118.11011505126953,40.048561096191406,62.343265533447266,146.77906799316406,77.66825866699219,-146.82394409179688,-64.5280532836914,32.76459503173828,146.66741943359375,-80.18357849121094,81.0181655883789,33.92738342285156,38.037208557128906,71.73786926269531,107.55567932128906,-77.72919464111328,-80.6922378540039,39.5401725769043,35.23720932006836,-34.35731506347656,39.50968933105469,117.06797790527344,-132.77313232421875,-70.02254486083984,-132.90969848632812,-76.55477142333984,35.70761489868164,43.964698791503906,89.99966430664062,104.87503814697266,-139.57373046875,-72.80099487304688,-38.67496109008789,43.48783493041992,